{"learner":{"attributes":{"scikit_learn":"{\"_estimator_type\": \"classifier\"}"},"feature_names":[],"feature_types":[],"gradient_booster":{"model":{"gbtree_model_param":{"num_parallel_tree":"1","num_trees":"2500"},"iteration_indptr":[0,5,10,15,20,25,30,35,40,45,50,55,60,65,70,75,80,85,90,95,100,105,110,115,120,125,130,135,140,145,150,155,160,165,170,175,180,185,190,195,200,205,210,215,220,225,230,235,240,245,250,255,260,265,270,275,280,285,290,295,300,305,310,315,320,325,330,335,340,345,350,355,360,365,370,375,380,385,390,395,400,405,410,415,420,425,430,435,440,445,450,455,460,465,470,475,480,485,490,495,500,505,510,515,520,525,530,535,540,545,550,555,560,565,570,575,580,585,590,595,600,605,610,615,620,625,630,635,640,645,650,655,660,665,670,675,680,685,690,695,700,705,710,715,720,725,730,735,740,745,750,755,760,765,770,775,780,785,790,795,800,805,810,815,820,825,830,835,840,845,850,855,860,865,870,875,880,885,890,895,900,905,910,915,920,925,930,935,940,945,950,955,960,965,970,975,980,985,990,995,1000,1005,1010,1015,1020,1025,1030,1035,1040,1045,1050,1055,1060,1065,1070,1075,1080,1085,1090,1095,1100,1105,1110,1115,1120,1125,1130,1135,1140,1145,1150,1155,1160,1165,1170,1175,1180,1185,1190,1195,1200,1205,1210,1215,1220,1225,1230,1235,1240,1245,1250,1255,1260,1265,1270,1275,1280,1285,1290,1295,1300,1305,1310,1315,1320,1325,1330,1335,1340,1345,1350,1355,1360,1365,1370,1375,1380,1385,1390,1395,1400,1405,1410,1415,1420,1425,1430,1435,1440,1445,1450,1455,1460,1465,1470,1475,1480,1485,1490,1495,1500,1505,1510,1515,1520,1525,1530,1535,1540,1545,1550,1555,1560,1565,1570,1575,1580,1585,1590,1595,1600,1605,1610,1615,1620,1625,1630,1635,1640,1645,1650,1655,1660,1665,1670,1675,1680,1685,1690,1695,1700,1705,1710,1715,1720,1725,1730,1735,1740,1745,1750,1755,1760,1765,1770,1775,1780,1785,1790,1795,1800,1805,1810,1815,1820,1825,1830,1835,1840,1845,1850,1855,1860,1865,1870,1875,1880,1885,1890,1895,1900,1905,1910,1915,1920,1925,1930,1935,1940,1945,1950,1955,1960,1965,1970,1975,1980,1985,1990,1995,2000,2005,2010,2015,2020,2025,2030,2035,2040,2045,2050,2055,2060,2065,2070,2075,2080,2085,2090,2095,2100,2105,2110,2115,2120,2125,2130,2135,2140,2145,2150,2155,2160,2165,2170,2175,2180,2185,2190,2195,2200,2205,2210,2215,2220,2225,2230,2235,2240,2245,2250,2255,2260,2265,2270,2275,2280,2285,2290,2295,2300,2305,2310,2315,2320,2325,2330,2335,2340,2345,2350,2355,2360,2365,2370,2375,2380,2385,2390,2395,2400,2405,2410,2415,2420,2425,2430,2435,2440,2445,2450,2455,2460,2465,2470,2475,2480,2485,2490,2495,2500],"tree_info":[0,1,2,3,4,0,1,2,3,4,0,1,2,3,4,0,1,2,3,4,0,1,2,3,4,0,1,2,3,4,0,1,2,3,4,0,1,2,3,4,0,1,2,3,4,0,1,2,3,4,0,1,2,3,4,0,1,2,3,4,0,1,2,3,4,0,1,2,3,4,0,1,2,3,4,0,1,2,3,4,0,1,2,3,4,0,1,2,3,4,0,1,2,3,4,0,1,2,3,4,0,1,2,3,4,0,1,2,3,4,0,1,2,3,4,0,1,2,3,4,0,1,2,3,4,0,1,2,3,4,0,1,2,3,4,0,1,2,3,4,0,1,2,3,4,0,1,2,3,4,0,1,2,3,4,0,1,2,3,4,0,1,2,3,4,0,1,2,3,4,0,1,2,3,4,0,1,2,3,4,0,1,2,3,4,0,1,2,3,4,0,1,2,3,4,0,1,2,3,4,0,1,2,3,4,0,1,2,3,4,0,1,2,3,4,0,1,2,3,4,0,1,2,3,4,0,1,2,3,4,0,1,2,3,4,0,1,2,3,4,0,1,2,3,4,0,1,2,3,4,0,1,2,3,4,0,1,2,3,4,0,1,2,3,4,0,1,2,3,4,0,1,2,3,4,0,1,2,3,4,0,1,2,3,4,0,1,2,3,4,0,1,2,3,4,0,1,2,3,4,0,1,2,3,4,0,1,2,3,4,0,1,2,3,4,0,1,2,3,4,0,1,2,3,4,0,1,2,3,4,0,1,2,3,4,0,1,2,3,4,0,1,2,3,4,0,1,2,3,4,0,1,2,3,4,0,1,2,3,4,0,1,2,3,4,0,1,2,3,4,0,1,2,3,4,0,1,2,3,4,0,1,2,3,4,0,1,2,3,4,0,1,2,3,4,0,1,2,3,4,0,1,2,3,4,0,1,2,3,4,0,1,2,3,4,0,1,2,3,4,0,1,2,3,4,0,1,2,3,4,0,1,2,3,4,0,1,2,3,4,0,1,2,3,4,0,1,2,3,4,0,1,2,3,4,0,1,2,3,4,0,1,2,3,4,0,1,2,3,4,0,1,2,3,4,0,1,2,3,4,0,1,2,3,4,0,1,2,3,4,0,1,2,3,4,0,1,2,3,4,0,1,2,3,4,0,1,2,3,4,0,1,2,3,4,0,1,2,3,4,0,1,2,3,4,0,1,2,3,4,0,1,2,3,4,0,1,2,3,4,0,1,2,3,4,0,1,2,3,4,0,1,2,3,4,0,1,2,3,4,0,1,2,3,4,0,1,2,3,4,0,1,2,3,4,0,1,2,3,4,0,1,2,3,4,0,1,2,3,4,0,1,2,3,4,0,1,2,3,4,0,1,2,3,4,0,1,2,3,4,0,1,2,3,4,0,1,2,3,4,0,1,2,3,4,0,1,2,3,4,0,1,2,3,4,0,1,2,3,4,0,1,2,3,4,0,1,2,3,4,0,1,2,3,4,0,1,2,3,4,0,1,2,3,4,0,1,2,3,4,0,1,2,3,4,0,1,2,3,4,0,1,2,3,4,0,1,2,3,4,0,1,2,3,4,0,1,2,3,4,0,1,2,3,4,0,1,2,3,4,0,1,2,3,4,0,1,2,3,4,0,1,2,3,4,0,1,2,3,4,0,1,2,3,4,0,1,2,3,4,0,1,2,3,4,0,1,2,3,4,0,1,2,3,4,0,1,2,3,4,0,1,2,3,4,0,1,2,3,4,0,1,2,3,4,0,1,2,3,4,0,1,2,3,4,0,1,2,3,4,0,1,2,3,4,0,1,2,3,4,0,1,2,3,4,0,1,2,3,4,0,1,2,3,4,0,1,2,3,4,0,1,2,3,4,0,1,2,3,4,0,1,2,3,4,0,1,2,3,4,0,1,2,3,4,0,1,2,3,4,0,1,2,3,4,0,1,2,3,4,0,1,2,3,4,0,1,2,3,4,0,1,2,3,4,0,1,2,3,4,0,1,2,3,4,0,1,2,3,4,0,1,2,3,4,0,1,2,3,4,0,1,2,3,4,0,1,2,3,4,0,1,2,3,4,0,1,2,3,4,0,1,2,3,4,0,1,2,3,4,0,1,2,3,4,0,1,2,3,4,0,1,2,3,4,0,1,2,3,4,0,1,2,3,4,0,1,2,3,4,0,1,2,3,4,0,1,2,3,4,0,1,2,3,4,0,1,2,3,4,0,1,2,3,4,0,1,2,3,4,0,1,2,3,4,0,1,2,3,4,0,1,2,3,4,0,1,2,3,4,0,1,2,3,4,0,1,2,3,4,0,1,2,3,4,0,1,2,3,4,0,1,2,3,4,0,1,2,3,4,0,1,2,3,4,0,1,2,3,4,0,1,2,3,4,0,1,2,3,4,0,1,2,3,4,0,1,2,3,4,0,1,2,3,4,0,1,2,3,4,0,1,2,3,4,0,1,2,3,4,0,1,2,3,4,0,1,2,3,4,0,1,2,3,4,0,1,2,3,4,0,1,2,3,4,0,1,2,3,4,0,1,2,3,4,0,1,2,3,4,0,1,2,3,4,0,1,2,3,4,0,1,2,3,4,0,1,2,3,4,0,1,2,3,4,0,1,2,3,4,0,1,2,3,4,0,1,2,3,4,0,1,2,3,4,0,1,2,3,4,0,1,2,3,4,0,1,2,3,4,0,1,2,3,4,0,1,2,3,4,0,1,2,3,4,0,1,2,3,4,0,1,2,3,4,0,1,2,3,4,0,1,2,3,4,0,1,2,3,4,0,1,2,3,4,0,1,2,3,4,0,1,2,3,4,0,1,2,3,4,0,1,2,3,4,0,1,2,3,4,0,1,2,3,4,0,1,2,3,4,0,1,2,3,4,0,1,2,3,4,0,1,2,3,4,0,1,2,3,4,0,1,2,3,4,0,1,2,3,4,0,1,2,3,4,0,1,2,3,4,0,1,2,3,4,0,1,2,3,4,0,1,2,3,4,0,1,2,3,4,0,1,2,3,4,0,1,2,3,4,0,1,2,3,4,0,1,2,3,4,0,1,2,3,4,0,1,2,3,4,0,1,2,3,4,0,1,2,3,4,0,1,2,3,4,0,1,2,3,4,0,1,2,3,4,0,1,2,3,4,0,1,2,3,4,0,1,2,3,4,0,1,2,3,4,0,1,2,3,4,0,1,2,3,4,0,1,2,3,4,0,1,2,3,4,0,1,2,3,4,0,1,2,3,4,0,1,2,3,4,0,1,2,3,4,0,1,2,3,4,0,1,2,3,4,0,1,2,3,4,0,1,2,3,4,0,1,2,3,4,0,1,2,3,4,0,1,2,3,4,0,1,2,3,4,0,1,2,3,4,0,1,2,3,4,0,1,2,3,4,0,1,2,3,4,0,1,2,3,4,0,1,2,3,4,0,1,2,3,4,0,1,2,3,4,0,1,2,3,4,0,1,2,3,4,0,1,2,3,4,0,1,2,3,4,0,1,2,3,4,0,1,2,3,4,0,1,2,3,4,0,1,2,3,4,0,1,2,3,4,0,1,2,3,4,0,1,2,3,4,0,1,2,3,4,0,1,2,3,4,0,1,2,3,4,0,1,2,3,4,0,1,2,3,4,0,1,2,3,4,0,1,2,3,4,0,1,2,3,4,0,1,2,3,4,0,1,2,3,4,0,1,2,3,4,0,1,2,3,4,0,1,2,3,4,0,1,2,3,4,0,1,2,3,4,0,1,2,3,4,0,1,2,3,4,0,1,2,3,4,0,1,2,3,4,0,1,2,3,4,0,1,2,3,4,0,1,2,3,4,0,1,2,3,4,0,1,2,3,4,0,1,2,3,4,0,1,2,3,4,0,1,2,3,4,0,1,2,3,4,0,1,2,3,4,0,1,2,3,4,0,1,2,3,4,0,1,2,3,4,0,1,2,3,4,0,1,2,3,4,0,1,2,3,4,0,1,2,3,4,0,1,2,3,4,0,1,2,3,4,0,1,2,3,4,0,1,2,3,4,0,1,2,3,4,0,1,2,3,4,0,1,2,3,4,0,1,2,3,4,0,1,2,3,4,0,1,2,3,4,0,1,2,3,4,0,1,2,3,4,0,1,2,3,4,0,1,2,3,4,0,1,2,3,4,0,1,2,3,4,0,1,2,3,4,0,1,2,3,4,0,1,2,3,4,0,1,2,3,4,0,1,2,3,4,0,1,2,3,4,0,1,2,3,4,0,1,2,3,4,0,1,2,3,4,0,1,2,3,4,0,1,2,3,4,0,1,2,3,4,0,1,2,3,4,0,1,2,3,4,0,1,2,3,4,0,1,2,3,4,0,1,2,3,4,0,1,2,3,4,0,1,2,3,4,0,1,2,3,4,0,1,2,3,4,0,1,2,3,4,0,1,2,3,4,0,1,2,3,4,0,1,2,3,4,0,1,2,3,4,0,1,2,3,4,0,1,2,3,4,0,1,2,3,4,0,1,2,3,4,0,1,2,3,4,0,1,2,3,4,0,1,2,3,4,0,1,2,3,4,0,1,2,3,4,0,1,2,3,4,0,1,2,3,4,0,1,2,3,4,0,1,2,3,4,0,1,2,3,4,0,1,2,3,4,0,1,2,3,4,0,1,2,3,4,0,1,2,3,4,0,1,2,3,4,0,1,2,3,4,0,1,2,3,4,0,1,2,3,4,0,1,2,3,4,0,1,2,3,4,0,1,2,3,4,0,1,2,3,4,0,1,2,3,4,0,1,2,3,4,0,1,2,3,4,0,1,2,3,4,0,1,2,3,4,0,1,2,3,4,0,1,2,3,4,0,1,2,3,4,0,1,2,3,4,0,1,2,3,4,0,1,2,3,4,0,1,2,3,4,0,1,2,3,4,0,1,2,3,4,0,1,2,3,4,0,1,2,3,4,0,1,2,3,4,0,1,2,3,4,0,1,2,3,4,0,1,2,3,4,0,1,2,3,4,0,1,2,3,4,0,1,2,3,4,0,1,2,3,4,0,1,2,3,4,0,1,2,3,4,0,1,2,3,4,0,1,2,3,4,0,1,2,3,4,0,1,2,3,4,0,1,2,3,4,0,1,2,3,4,0,1,2,3,4,0,1,2,3,4,0,1,2,3,4,0,1,2,3,4,0,1,2,3,4,0,1,2,3,4,0,1,2,3,4,0,1,2,3,4,0,1,2,3,4,0,1,2,3,4,0,1,2,3,4,0,1,2,3,4,0,1,2,3,4,0,1,2,3,4,0,1,2,3,4,0,1,2,3,4,0,1,2,3,4,0,1,2,3,4,0,1,2,3,4,0,1,2,3,4,0,1,2,3,4,0,1,2,3,4,0,1,2,3,4,0,1,2,3,4,0,1,2,3,4,0,1,2,3,4,0,1,2,3,4,0,1,2,3,4,0,1,2,3,4,0,1,2,3,4,0,1,2,3,4,0,1,2,3,4,0,1,2,3,4,0,1,2,3,4,0,1,2,3,4,0,1,2,3,4,0,1,2,3,4,0,1,2,3,4,0,1,2,3,4,0,1,2,3,4,0,1,2,3,4,0,1,2,3,4,0,1,2,3,4,0,1,2,3,4,0,1,2,3,4,0,1,2,3,4,0,1,2,3,4,0,1,2,3,4],"trees":[{"base_weights":[-0E0,-4.9835703E-1,1.091127E0,-5.7846504E-1,2.3076923E-1,1.7845117E0,-1.5517241E-1,-1.8192627E-1,2.6315792E-2,-1.2328767E-1,6.7469877E-1],"categories":[],"categories_nodes":[],"categories_segments":[],"categories_sizes":[],"default_left":[0,0,0,0,0,0,0,0,0,0,0],"id":0,"left_children":[1,3,5,7,-1,9,-1,-1,-1,-1,-1],"loss_changes":[2.8928612E1,4.1533575E0,1.9524855E1,7.0353603E-1,0E0,1.3039009E1,0E0,0E0,0E0,0E0,0E0],"parents":[2147483647,0,0,1,1,2,2,3,3,5,5],"right_children":[2,4,6,8,-1,10,-1,-1,-1,-1,-1],"split_conditions":[-2.1267241E-1,1.0384159E0,4.09672E-1,1.1037515E0,2.3076923E-1,-2.7912995E-1,-1.5517241E-1,-1.8192627E-1,2.6315792E-2,-1.2328767E-1,6.7469877E-1],"split_indices":[172,328,35,15,0,74,0,0,0,0,0],"split_type":[0,0,0,0,0,0,0,0,0,0,0],"sum_hessian":[5.1200005E1,3.5520004E1,1.5680001E1,3.3920002E1,1.6000001E0,1.0880001E1,4.8E0,3.2640003E1,1.2800001E0,1.9200001E0,8.960001E0],"tree_param":{"num_deleted":"0","num_feature":"437","num_nodes":"11","size_leaf_vector":"1"}},{"base_weights":[-0E0,-4.6948355E-1,1.8867923E0,-5.8473736E-1,3.333333E-1,-1.05263166E-1,6.695279E-1,-1.8270214E-1,2.6315792E-2],"categories":[],"categories_nodes":[],"categories_segments":[],"categories_sizes":[],"default_left":[0,0,0,0,0,0,0,0,0],"id":1,"left_children":[1,3,5,7,-1,-1,-1,-1,-1],"loss_changes":[4.712552E1,8.41013E0,8.965454E0,7.121124E-1,0E0,0E0,0E0,0E0,0E0],"parents":[2147483647,0,0,1,1,2,2,3,3],"right_children":[2,4,6,8,-1,-1,-1,-1,-1],"split_conditions":[5.98501E-1,1.29707E0,-5.9895366E-1,2.1802576E0,3.333333E-1,-1.05263166E-1,6.695279E-1,-1.8270214E-1,2.6315792E-2],"split_indices":[397,349,349,91,0,0,0,0,0],"split_type":[0,0,0,0,0,0,0,0,0],"sum_hessian":[5.1200005E1,4.1600002E1,9.6E0,3.9360004E1,2.2400002E0,1.2800001E0,8.320001E0,3.808E1,1.2800001E0],"tree_param":{"num_deleted":"0","num_feature":"437","num_nodes":"9","size_leaf_vector":"1"}},{"base_weights":[-0E0,1.9963369E0,-5.156102E-1,6.7219913E-1,2.6315792E-2,2.8947368E-1,-5.8536583E-1,-1.8277946E-1,2.6315792E-2],"categories":[],"categories_nodes":[],"categories_segments":[],"categories_sizes":[],"default_left":[0,0,0,0,0,0,0,0,0],"id":2,"left_children":[1,3,5,-1,-1,-1,7,-1,-1],"loss_changes":[5.476045E1,4.8957405E0,4.931285E0,0E0,0E0,0E0,7.129736E-1,0E0,0E0],"parents":[2147483647,0,0,1,1,2,2,6,6],"right_children":[2,4,6,-1,-1,-1,8,-1,-1],"split_conditions":[-2.7957574E-1,-3.2234663E-1,-1.0775659E0,6.7219913E-1,2.6315792E-2,2.8947368E-1,2.2589543E0,-1.8277946E-1,2.6315792E-2],"split_indices":[229,121,349,0,0,0,4,0,0],"split_type":[0,0,0,0,0,0,0,0,0],"sum_hessian":[5.1200005E1,9.920001E0,4.1280003E1,8.64E0,1.2800001E0,1.2800001E0,4.0000004E1,3.872E1,1.2800001E0],"tree_param":{"num_deleted":"0","num_feature":"437","num_nodes":"9","size_leaf_vector":"1"}},{"base_weights":[-0E0,-4.432793E-1,1.6548042E0,3.333333E-1,-5.5891234E-1,-1.2962963E-1,6.666666E-1,-1.8262227E-1,1.5789473E-1],"categories":[],"categories_nodes":[],"categories_segments":[],"categories_sizes":[],"default_left":[0,0,0,0,0,0,0,0,0],"id":3,"left_children":[1,3,5,-1,7,-1,-1,-1,-1],"loss_changes":[3.9024353E1,8.162859E0,1.4270018E1,0E0,2.4682608E0,0E0,0E0,0E0,0E0],"parents":[2147483647,0,0,1,1,2,2,4,4],"right_children":[2,4,6,-1,8,-1,-1,-1,-1],"split_conditions":[6.9194615E-1,-1.8944368E-1,-3.1095096E-1,3.333333E-1,3.456624E0,-1.2962963E-1,6.666666E-1,-1.8262227E-1,1.5789473E-1],"split_indices":[370,159,238,0,89,0,0,0,0],"split_type":[0,0,0,0,0,0,0,0,0],"sum_hessian":[5.1200005E1,4.0960003E1,1.0240001E1,2.2400002E0,3.872E1,2.2400002E0,8.000001E0,3.7440002E1,1.2800001E0],"tree_param":{"num_deleted":"0","num_feature":"437","num_nodes":"9","size_leaf_vector":"1"}},{"base_weights":[-0E0,2.0754716E0,-5.1643187E-1,1.5789473E-1,6.695279E-1,2.8767124E-1,-1.8289085E-1],"categories":[],"categories_nodes":[],"categories_segments":[],"categories_sizes":[],"default_left":[0,0,0,0,0,0,0],"id":4,"left_children":[1,3,5,-1,-1,-1,-1],"loss_changes":[5.702188E1,1.3918037E0,6.4424057E0,0E0,0E0,0E0,0E0],"parents":[2147483647,0,0,1,1,2,2],"right_children":[2,4,6,-1,-1,-1,-1],"split_conditions":[-8.689044E-1,-9.875176E-2,-8.79758E-1,1.5789473E-1,6.695279E-1,2.8767124E-1,-1.8289085E-1],"split_indices":[422,1,398,0,0,0,0],"split_type":[0,0,0,0,0,0,0],"sum_hessian":[5.1200005E1,9.6E0,4.1600002E1,1.2800001E0,8.320001E0,1.9200001E0,3.9680004E1],"tree_param":{"num_deleted":"0","num_feature":"437","num_nodes":"7","size_leaf_vector":"1"}},{"base_weights":[-3.9677457E-3,-5.425037E-1,6.532918E-1,-1.7239818E-1,4.1399345E-2,1.0721253E0,-1.5352139E-1,-1.1981455E-1,3.8565597E-1],"categories":[],"categories_nodes":[],"categories_segments":[],"categories_sizes":[],"default_left":[0,0,0,0,0,0,0,0,0],"id":5,"left_children":[1,3,5,-1,-1,7,-1,-1,-1],"loss_changes":[1.8216879E1,6.982336E-1,1.185988E1,0E0,0E0,5.9690914E0,0E0,0E0,0E0],"parents":[2147483647,0,0,1,1,2,2,5,5],"right_children":[2,4,6,-1,-1,8,-1,-1,-1],"split_conditions":[-1.5978375E-1,1.0384159E0,4.09672E-1,-1.7239818E-1,4.1399345E-2,-3.4713876E-1,-1.5352139E-1,-1.1981455E-1,3.8565597E-1],"split_indices":[174,328,35,0,0,205,0,0,0],"split_type":[0,0,0,0,0,0,0,0,0],"sum_hessian":[4.9464947E1,2.7283983E1,2.2180964E1,2.620138E1,1.0826044E0,1.6374132E1,5.8068314E0,1.9634154E0,1.4410717E1],"tree_param":{"num_deleted":"0","num_feature":"437","num_nodes":"9","size_leaf_vector":"1"}},{"base_weights":[-8.605872E-4,-4.9779937E-1,1.02542E0,-1.7391485E-1,1.9428289E-1,-1.24080054E-1,3.8182887E-1],"categories":[],"categories_nodes":[],"categories_segments":[],"categories_sizes":[],"default_left":[0,0,0,0,0,0,0],"id":6,"left_children":[1,3,5,-1,-1,-1,-1],"loss_changes":[2.6159246E1,3.617919E0,6.482628E0,0E0,0E0,0E0,0E0],"parents":[2147483647,0,0,1,1,2,2],"right_children":[2,4,6,-1,-1,-1,-1],"split_conditions":[4.040712E-1,1.4527286E0,-5.9895366E-1,-1.7391485E-1,1.9428289E-1,-1.24080054E-1,3.8182887E-1],"split_indices":[397,29,349,0,0,0,0],"split_type":[0,0,0,0,0,0,0],"sum_hessian":[4.929189E1,3.355773E1,1.5734157E1,3.1778868E1,1.7788656E0,2.209178E0,1.3524979E1],"tree_param":{"num_deleted":"0","num_feature":"437","num_nodes":"7","size_leaf_vector":"1"}},{"base_weights":[1.0005964E-3,1.0923448E0,-5.5192953E-1,1.2422533E0,-1.053786E-1,4.4224203E-2,-1.7362669E-1,4.0172386E-1,2.092648E-2],"categories":[],"categories_nodes":[],"categories_segments":[],"categories_sizes":[],"default_left":[0,0,0,0,0,0,0,0,0],"id":7,"left_children":[1,3,5,7,-1,-1,-1,-1,-1],"loss_changes":[3.090361E1,4.1631985E0,7.2303486E-1,1.7027988E0,0E0,0E0,0E0,0E0,0E0],"parents":[2147483647,0,0,1,1,2,2,3,3],"right_children":[2,4,6,8,-1,-1,-1,-1,-1],"split_conditions":[-4.2360172E-1,-2.6477444E-1,-1.0055456E0,8.840097E-1,-1.053786E-1,4.4224203E-2,-1.7362669E-1,4.0172386E-1,2.092648E-2],"split_indices":[228,122,349,363,0,0,0,0,0],"split_type":[0,0,0,0,0,0,0,0,0],"sum_hessian":[4.9213547E1,1.6221283E1,3.2992264E1,1.4821637E1,1.3996456E0,1.0527387E0,3.1939526E1,1.3559783E1,1.2618542E0],"tree_param":{"num_deleted":"0","num_feature":"437","num_nodes":"9","size_leaf_vector":"1"}},{"base_weights":[2.474637E-3,-4.9310797E-1,9.144659E-1,2.8912842E-1,-1.737085E-1,-1.4374381E-1,3.9950535E-1],"categories":[],"categories_nodes":[],"categories_segments":[],"categories_sizes":[],"default_left":[0,0,0,0,0,0,0],"id":8,"left_children":[1,3,5,-1,-1,-1,-1],"loss_changes":[2.3146399E1,4.711939E0,1.1121522E1,0E0,0E0,0E0,0E0],"parents":[2147483647,0,0,1,1,2,2],"right_children":[2,4,6,-1,-1,-1,-1],"split_conditions":[4.0464574E-1,-1.4826723E0,-3.1095096E-1,2.8912842E-1,-1.737085E-1,-1.4374381E-1,3.9950535E-1],"split_indices":[370,392,238,0,0,0,0],"split_type":[0,0,0,0,0,0,0],"sum_hessian":[4.9214878E1,3.2184757E1,1.7030123E1,1.2234232E0,3.0961334E1,3.8895729E0,1.314055E1],"tree_param":{"num_deleted":"0","num_feature":"437","num_nodes":"7","size_leaf_vector":"1"}},{"base_weights":[1.3758643E-3,1.1709933E0,-5.285861E-1,-1.0512272E-1,4.0211272E-1,1.3971394E-1,-1.7377606E-1],"categories":[],"categories_nodes":[],"categories_segments":[],"categories_sizes":[],"default_left":[0,0,0,0,0,0,0],"id":9,"left_children":[1,3,5,-1,-1,-1,-1],"loss_changes":[3.1706257E1,4.57987E0,2.0432472E0,0E0,0E0,0E0,0E0],"parents":[2147483647,0,0,1,1,2,2],"right_children":[2,4,6,-1,-1,-1,-1],"split_conditions":[-8.298991E-1,5.340663E-1,-8.7879175E-1,-1.0512272E-1,4.0211272E-1,1.3971394E-1,-1.7377606E-1],"split_indices":[420,30,422,0,0,0,0],"split_type":[0,0,0,0,0,0,0],"sum_hessian":[4.9152695E1,1.4949596E1,3.42031E1,1.3905793E0,1.3559017E1,1.2612242E0,3.2941875E1],"tree_param":{"num_deleted":"0","num_feature":"437","num_nodes":"7","size_leaf_vector":"1"}},{"base_weights":[-6.7016636E-3,-5.122444E-1,5.0852203E-1,-1.6515674E-1,4.5013465E-2,-1.4525329E-1,8.0432266E-1,-1.08188845E-1,2.8222817E-1],"categories":[],"categories_nodes":[],"categories_segments":[],"categories_sizes":[],"default_left":[0,0,0,0,0,0,0,0,0],"id":10,"left_children":[1,3,5,-1,-1,-1,7,-1,-1],"loss_changes":[1.223743E1,6.836138E-1,7.2239347E0,0E0,0E0,0E0,3.2491322E0,0E0,0E0],"parents":[2147483647,0,0,1,1,2,2,6,6],"right_children":[2,4,6,-1,-1,-1,8,-1,-1],"split_conditions":[-1.5978375E-1,2.008457E0,-8.280112E-1,-1.6515674E-1,4.5013465E-2,-1.4525329E-1,-3.4713876E-1,-1.08188845E-1,2.8222817E-1],"split_indices":[174,339,395,0,0,0,205,0,0],"split_type":[0,0,0,0,0,0,0,0,0],"sum_hessian":[4.4982464E1,2.2707457E1,2.2275007E1,2.1626291E1,1.0811665E0,4.9674683E0,1.7307539E1,1.6422545E0,1.5665284E1],"tree_param":{"num_deleted":"0","num_feature":"437","num_nodes":"9","size_leaf_vector":"1"}},{"base_weights":[4.5626456E-4,-4.6390244E-1,7.685932E-1,-1.6617772E-1,1.5556486E-1,-1.13993846E-1,2.7914777E-1],"categories":[],"categories_nodes":[],"categories_segments":[],"categories_sizes":[],"default_left":[0,0,0,0,0,0,0],"id":11,"left_children":[1,3,5,-1,-1,-1,-1],"loss_changes":[1.668446E1,2.8656263E0,3.630642E0,0E0,0E0,0E0,0E0],"parents":[2147483647,0,0,1,1,2,2],"right_children":[2,4,6,-1,-1,-1,-1],"split_conditions":[4.040712E-1,1.4527286E0,-5.9895366E-1,-1.6617772E-1,1.5556486E-1,-1.13993846E-1,2.7914777E-1],"split_indices":[397,29,349,0,0,0,0],"split_type":[0,0,0,0,0,0,0],"sum_hessian":[4.477605E1,2.8152937E1,1.6623114E1,2.6189356E1,1.9635819E0,1.8872524E0,1.4735861E1],"tree_param":{"num_deleted":"0","num_feature":"437","num_nodes":"7","size_leaf_vector":"1"}},{"base_weights":[1.5382537E-3,8.1282055E-1,-5.271653E-1,9.259045E-1,-1.0069234E-1,3.371919E-2,-1.6642526E-1,5.9660566E-3,2.991056E-1],"categories":[],"categories_nodes":[],"categories_segments":[],"categories_sizes":[],"default_left":[0,0,0,0,0,0,0,0,0],"id":12,"left_children":[1,3,5,7,-1,-1,-1,-1,-1],"loss_changes":[2.0039782E1,2.704753E0,5.614352E-1,1.0785236E0,0E0,0E0,0E0,0E0,0E0],"parents":[2147483647,0,0,1,1,2,2,3,3],"right_children":[2,4,6,8,-1,-1,-1,-1,-1],"split_conditions":[-4.7445565E-1,1.1355951E0,-3.0076826E-1,-1.8679018E-1,-1.0069234E-1,3.371919E-2,-1.6642526E-1,5.9660566E-3,2.991056E-1],"split_indices":[225,395,245,392,0,0,0,0,0],"split_type":[0,0,0,0,0,0,0,0,0],"sum_hessian":[4.4721657E1,1.7433304E1,2.7288351E1,1.6047012E1,1.3862913E0,1.001205E0,2.6287146E1,1.2610074E0,1.4786005E1],"tree_param":{"num_deleted":"0","num_feature":"437","num_nodes":"9","size_leaf_vector":"1"}},{"base_weights":[3.589391E-3,-1.6527188E-1,5.950039E-1,9.3782276E-1,-1.4541425E-1,1.7589133E-2,2.9872736E-1],"categories":[],"categories_nodes":[],"categories_segments":[],"categories_sizes":[],"default_left":[0,0,0,0,0,0,0],"id":13,"left_children":[1,-1,3,5,-1,-1,-1],"loss_changes":[1.5283809E1,0E0,8.801142E0,8.3075047E-1,0E0,0E0,0E0],"parents":[2147483647,0,0,2,2,3,3],"right_children":[2,-1,4,6,-1,-1,-1],"split_conditions":[-1.65382E-2,-1.6527188E-1,-3.438798E-2,-1.5423767E-1,-1.4541425E-1,1.7589133E-2,2.9872736E-1],"split_indices":[371,0,408,61,0,0,0],"split_type":[0,0,0,0,0,0,0],"sum_hessian":[4.4606407E1,2.3057117E1,2.1549288E1,1.6455849E1,5.0934405E0,1.1417191E0,1.5314129E1],"tree_param":{"num_deleted":"0","num_feature":"437","num_nodes":"7","size_leaf_vector":"1"}},{"base_weights":[1.1686351E-3,-1.6632691E-1,7.984099E-1,-1.19709164E-1,2.9462364E-1],"categories":[],"categories_nodes":[],"categories_segments":[],"categories_sizes":[],"default_left":[0,0,0,0,0],"id":14,"left_children":[1,-1,3,-1,-1],"loss_changes":[2.062311E1,0E0,4.597172E0,0E0,0E0],"parents":[2147483647,0,0,2,2],"right_children":[2,-1,4,-1,-1],"split_conditions":[6.7560166E-1,-1.6632691E-1,-1.8573721E-1,-1.19709164E-1,2.9462364E-1],"split_indices":[30,0,173,0,0],"split_type":[0,0,0,0,0],"sum_hessian":[4.4560184E1,2.6439358E1,1.8120825E1,2.2538917E0,1.5866933E1],"tree_param":{"num_deleted":"0","num_feature":"437","num_nodes":"5","size_leaf_vector":"1"}},{"base_weights":[-8.762955E-3,-4.8437965E-1,4.2396325E-1,4.90222E-2,-1.5853533E-1,6.562718E-1,-1.3625063E-1,-9.951093E-2,2.291267E-1],"categories":[],"categories_nodes":[],"categories_segments":[],"categories_sizes":[],"default_left":[0,0,0,0,0,0,0,0,0],"id":15,"left_children":[1,3,5,-1,-1,7,-1,-1,-1],"loss_changes":[8.479539E0,6.4645004E-1,4.701089E0,0E0,0E0,2.10928E0,0E0,0E0,0E0],"parents":[2147483647,0,0,1,1,2,2,5,5],"right_children":[2,4,6,-1,-1,8,-1,-1,-1],"split_conditions":[-1.5978375E-1,-1.8413032E0,4.09672E-1,4.90222E-2,-1.5853533E-1,-3.4713876E-1,-1.3625063E-1,-9.951093E-2,2.291267E-1],"split_indices":[174,346,35,0,0,205,0,0,0],"split_type":[0,0,0,0,0,0,0,0,0],"sum_hessian":[3.920265E1,1.8618914E1,2.0583733E1,1.0135394E0,1.7605375E1,1.6477327E1,4.106404E0,1.4120363E0,1.5065291E1],"tree_param":{"num_deleted":"0","num_feature":"437","num_nodes":"9","size_leaf_vector":"1"}},{"base_weights":[3.1369277E-3,-1.600466E-1,5.131192E-1,7.2959685E-1,-3.1306148E-1,2.407373E-1,-1.566852E-2,1.8317236E-2,-1.2600173E-1],"categories":[],"categories_nodes":[],"categories_segments":[],"categories_sizes":[],"default_left":[0,0,0,0,0,0,0,0,0],"id":16,"left_children":[1,-1,3,5,7,-1,-1,-1,-1],"loss_changes":[1.1252054E1,0E0,3.9981909E0,1.010416E0,2.287333E-1,0E0,0E0,0E0,0E0],"parents":[2147483647,0,0,2,2,3,3,4,4],"right_children":[2,-1,4,6,8,-1,-1,-1,-1],"split_conditions":[1.2777987E-1,-1.600466E-1,3.6414307E-1,-1.0937652E-1,-9.117977E-1,2.407373E-1,-1.566852E-2,1.8317236E-2,-1.2600173E-1],"split_indices":[396,0,38,171,28,0,0,0,0],"split_type":[0,0,0,0,0,0,0,0,0],"sum_hessian":[3.9115208E1,1.9037268E1,2.0077938E1,1.600197E1,4.0759673E0,1.4613686E1,1.388285E0,1.001507E0,3.0744605E0],"tree_param":{"num_deleted":"0","num_feature":"437","num_nodes":"9","size_leaf_vector":"1"}},{"base_weights":[3.4792577E-3,6.357044E-1,-1.6002953E-1,7.8268486E-1,-1.04251735E-1,2.4593489E-1,6.620096E-2,-1.1209249E-1,9.463396E-2],"categories":[],"categories_nodes":[],"categories_segments":[],"categories_sizes":[],"default_left":[0,0,0,0,0,0,0,0,0],"id":17,"left_children":[1,3,-1,5,7,-1,-1,-1,-1],"loss_changes":[1.3937048E1,2.1320105E0,0E0,1.4948463E-1,5.708701E-1,0E0,0E0,0E0,0E0],"parents":[2147483647,0,0,1,1,3,3,4,4],"right_children":[2,4,-1,6,8,-1,-1,-1,-1],"split_conditions":[-3.0346075E-1,-5.935298E-1,-1.6002953E-1,-2.2776036E-1,2.7539673E-1,2.4593489E-1,6.620096E-2,-1.1209249E-1,9.463396E-2],"split_indices":[224,349,0,279,37,0,0,0,0],"split_type":[0,0,0,0,0,0,0,0,0],"sum_hessian":[3.9058907E1,1.7852808E1,2.1206099E1,1.4846119E1,3.006689E0,1.3496574E1,1.3495455E0,1.8981009E0,1.1085881E0],"tree_param":{"num_deleted":"0","num_feature":"437","num_nodes":"9","size_leaf_vector":"1"}},{"base_weights":[3.5619733E-3,-1.588526E-1,5.0220525E-1,2.3847972E-1,-3.6216754E-1,-1.3522743E-1,1.2487842E-2],"categories":[],"categories_nodes":[],"categories_segments":[],"categories_sizes":[],"default_left":[0,0,0,0,0,0,0],"id":18,"left_children":[1,-1,3,-1,5,-1,-1],"loss_changes":[1.0867713E1,0E0,5.6320353E0,0E0,2.3447943E-1,0E0,0E0],"parents":[2147483647,0,0,2,2,4,4],"right_children":[2,-1,4,-1,6,-1,-1],"split_conditions":[-1.65382E-2,-1.588526E-1,-1.7290989E-1,2.3847972E-1,-6.0961362E-2,-1.3522743E-1,1.2487842E-2],"split_indices":[371,0,392,0,138,0,0],"split_type":[0,0,0,0,0,0,0],"sum_hessian":[3.8884537E1,1.8763582E1,2.0120956E1,1.50907E1,5.0302563E0,4.0298233E0,1.0004333E0],"tree_param":{"num_deleted":"0","num_feature":"437","num_nodes":"7","size_leaf_vector":"1"}},{"base_weights":[-1.3866308E-3,-1.5983012E-1,6.508974E-1,-1.1160608E-1,2.3850527E-1],"categories":[],"categories_nodes":[],"categories_segments":[],"categories_sizes":[],"default_left":[0,0,0,0,0],"id":19,"left_children":[1,-1,3,-1,-1],"loss_changes":[1.4091806E1,0E0,2.9866114E0,0E0,0E0],"parents":[2147483647,0,0,2,2],"right_children":[2,-1,4,-1,-1],"split_conditions":[6.7560166E-1,-1.5983012E-1,-1.8573721E-1,-1.1160608E-1,2.3850527E-1],"split_indices":[30,0,173,0,0],"split_type":[0,0,0,0,0],"sum_hessian":[3.8655495E1,2.1402922E1,1.7252571E1,1.9352782E0,1.5317293E1],"tree_param":{"num_deleted":"0","num_feature":"437","num_nodes":"5","size_leaf_vector":"1"}},{"base_weights":[-8.976378E-3,-4.583883E-1,3.697947E-1,4.522033E-2,-1.5263437E-1,-1.2825696E-1,5.697715E-1,-8.943844E-2,1.9800301E-1],"categories":[],"categories_nodes":[],"categories_segments":[],"categories_sizes":[],"default_left":[0,0,0,0,0,0,0,0,0],"id":20,"left_children":[1,3,5,-1,-1,-1,7,-1,-1],"loss_changes":[6.0038457E0,5.7156277E-1,3.2973516E0,0E0,0E0,0E0,1.4295454E0,0E0,0E0],"parents":[2147483647,0,0,1,1,2,2,6,6],"right_children":[2,4,6,-1,-1,-1,8,-1,-1],"split_conditions":[-1.5978375E-1,-1.8413032E0,-8.280112E-1,4.522033E-2,-1.5263437E-1,-1.2825696E-1,-3.4713876E-1,-8.943844E-2,1.9800301E-1],"split_indices":[174,346,395,0,0,0,205,0,0],"split_type":[0,0,0,0,0,0,0,0,0],"sum_hessian":[3.3274414E1,1.5121983E1,1.8152431E1,1.0033109E0,1.4118671E1,3.4117491E0,1.4740684E1,1.1713203E0,1.3569363E1],"tree_param":{"num_deleted":"0","num_feature":"437","num_nodes":"9","size_leaf_vector":"1"}},{"base_weights":[3.469633E-3,-1.5409474E-1,4.440221E-1,-2.7199987E-1,6.324746E-1,-1.1890654E-1,2.7763998E-2,-7.828299E-3,2.0617387E-1],"categories":[],"categories_nodes":[],"categories_segments":[],"categories_sizes":[],"default_left":[0,0,0,0,0,0,0,0,0],"id":21,"left_children":[1,-1,3,5,7,-1,-1,-1,-1],"loss_changes":[8.054953E0,0E0,2.7476497E0,2.4867335E-1,5.738344E-1,0E0,0E0,0E0,0E0],"parents":[2147483647,0,0,2,2,3,3,4,4],"right_children":[2,-1,4,6,8,-1,-1,-1,-1],"split_conditions":[1.2777987E-1,-1.5409474E-1,1.4807996E-1,2.2262996E-1,-5.0992984E-1,-1.1890654E-1,2.7763998E-2,-7.828299E-3,2.0617387E-1],"split_indices":[396,0,398,84,349,0,0,0,0],"split_type":[0,0,0,0,0,0,0,0,0],"sum_hessian":[3.3355865E1,1.5268197E1,1.808767E1,3.6762998E0,1.4411369E1,2.6761484E0,1.0001514E0,1.1467332E0,1.3264637E1],"tree_param":{"num_deleted":"0","num_feature":"437","num_nodes":"9","size_leaf_vector":"1"}},{"base_weights":[5.7741636E-3,5.4736215E-1,-1.5438507E-1,6.346761E-1,-9.3351915E-2,2.0738208E-1,-1.3100234E-2],"categories":[],"categories_nodes":[],"categories_segments":[],"categories_sizes":[],"default_left":[0,0,0,0,0,0,0],"id":22,"left_children":[1,3,-1,5,-1,-1,-1],"loss_changes":[9.913223E0,1.4891329E0,0E0,6.4327526E-1,0E0,0E0,0E0],"parents":[2147483647,0,0,1,1,3,3],"right_children":[2,4,-1,6,-1,-1,-1],"split_conditions":[-3.0346075E-1,-3.4765926E-1,-1.5438507E-1,-4.2921153E-1,-9.3351915E-2,2.0738208E-1,-1.3100234E-2],"split_indices":[224,237,0,349,0,0,0],"split_type":[0,0,0,0,0,0,0],"sum_hessian":[3.3174088E1,1.6230572E1,1.6943516E1,1.4968959E1,1.261613E0,1.3798613E1,1.1703465E0],"tree_param":{"num_deleted":"0","num_feature":"437","num_nodes":"7","size_leaf_vector":"1"}},{"base_weights":[2.9906584E-3,-1.5317746E-1,4.3775547E-1,6.588605E-1,-1.2788358E-1,2.2156091E-2,2.084956E-1],"categories":[],"categories_nodes":[],"categories_segments":[],"categories_sizes":[],"default_left":[0,0,0,0,0,0,0],"id":23,"left_children":[1,-1,3,5,-1,-1,-1],"loss_changes":[7.8184824E0,0E0,3.9028327E0,2.7600288E-1,0E0,0E0,0E0],"parents":[2147483647,0,0,2,2,3,3],"right_children":[2,-1,4,6,-1,-1,-1],"split_conditions":[-1.65382E-2,-1.5317746E-1,-3.438798E-2,-1.3922266E0,-1.2788358E-1,2.2156091E-2,2.084956E-1],"split_indices":[371,0,408,52,0,0,0],"split_type":[0,0,0,0,0,0,0],"sum_hessian":[3.301431E1,1.50552845E1,1.7959024E1,1.4488818E1,3.4702065E0,1.019727E0,1.346909E1],"tree_param":{"num_deleted":"0","num_feature":"437","num_nodes":"7","size_leaf_vector":"1"}},{"base_weights":[-3.297567E-3,-1.542631E-1,5.62308E-1,-1.0342819E-1,2.060247E-1],"categories":[],"categories_nodes":[],"categories_segments":[],"categories_sizes":[],"default_left":[0,0,0,0,0],"id":24,"left_children":[1,-1,3,-1,-1],"loss_changes":[9.980811E0,0E0,2.0873442E0,0E0,0E0],"parents":[2147483647,0,0,2,2],"right_children":[2,-1,4,-1,-1],"split_conditions":[6.7560166E-1,-1.542631E-1,-1.8573721E-1,-1.0342819E-1,2.060247E-1],"split_indices":[30,0,173,0,0],"split_type":[0,0,0,0,0],"sum_hessian":[3.253807E1,1.7143332E1,1.5394738E1,1.643626E0,1.3751113E1],"tree_param":{"num_deleted":"0","num_feature":"437","num_nodes":"5","size_leaf_vector":"1"}},{"base_weights":[-9.272053E-3,-4.330096E-1,3.294356E-1,-1.4737542E-1,3.895175E-2,5.0862646E-1,-1.2039889E-1,-8.1707925E-2,1.7751229E-1],"categories":[],"categories_nodes":[],"categories_segments":[],"categories_sizes":[],"default_left":[0,0,0,0,0,0,0,0,0],"id":25,"left_children":[1,3,5,-1,-1,7,-1,-1,-1],"loss_changes":[4.260084E0,4.9572778E-1,2.366285E0,0E0,0E0,1.0501673E0,0E0,0E0,0E0],"parents":[2147483647,0,0,1,1,2,2,5,5],"right_children":[2,4,6,-1,-1,8,-1,-1,-1],"split_conditions":[-1.5978375E-1,1.2813859E0,4.09672E-1,-1.4737542E-1,3.895175E-2,-3.4713876E-1,-1.2039889E-1,-8.1707925E-2,1.7751229E-1],"split_indices":[174,26,35,0,0,205,0,0,0],"split_type":[0,0,0,0,0,0,0,0,0],"sum_hessian":[2.7688303E1,1.2176532E1,1.5511772E1,1.1149974E1,1.026558E0,1.2701275E1,2.8104978E0,1.0021874E0,1.1699087E1],"tree_param":{"num_deleted":"0","num_feature":"437","num_nodes":"9","size_leaf_vector":"1"}},{"base_weights":[5.781157E-3,-1.4867969E-1,3.980153E-1,5.382884E-1,-1.1076657E-1,-2.0206464E-2,1.8548803E-1],"categories":[],"categories_nodes":[],"categories_segments":[],"categories_sizes":[],"default_left":[0,0,0,0,0,0,0],"id":26,"left_children":[1,-1,3,5,-1,-1,-1],"loss_changes":[5.878494E0,0E0,2.002858E0,7.480645E-1,0E0,0E0,0E0],"parents":[2147483647,0,0,2,2,3,3],"right_children":[2,-1,4,6,-1,-1,-1],"split_conditions":[1.2777987E-1,-1.4867969E-1,6.983249E-1,9.061444E-2,-1.1076657E-1,-2.0206464E-2,1.8548803E-1],"split_indices":[396,0,38,397,0,0,0],"split_type":[0,0,0,0,0,0,0],"sum_hessian":[2.7888868E1,1.2125592E1,1.5763276E1,1.35790415E1,2.1842344E0,1.6029223E0,1.197612E1],"tree_param":{"num_deleted":"0","num_feature":"437","num_nodes":"7","size_leaf_vector":"1"}},{"base_weights":[5.8593745E-3,5.2042043E-1,-4.6083775E-1,5.9407574E-1,-3.1701773E-2,-1.4981228E-1,1.5018233E-2,3.643033E-2,1.8772556E-1],"categories":[],"categories_nodes":[],"categories_segments":[],"categories_sizes":[],"default_left":[0,0,0,0,0,0,0,0,0],"id":27,"left_children":[1,3,5,7,-1,-1,-1,-1,-1],"loss_changes":[7.124106E0,7.1318984E-1,3.3141017E-1,1.1520481E-1,0E0,0E0,0E0,0E0,0E0],"parents":[2147483647,0,0,1,1,2,2,3,3],"right_children":[2,4,6,8,-1,-1,-1,-1,-1],"split_conditions":[-4.2360172E-1,8.999562E-1,-2.5705185E-3,1.2049527E-1,-3.1701773E-2,-1.4981228E-1,1.5018233E-2,3.643033E-2,1.8772556E-1],"split_indices":[228,395,298,399,0,0,0,0,0],"split_type":[0,0,0,0,0,0,0,0,0],"sum_hessian":[2.7667267E1,1.3104106E1,1.4563162E1,1.1770526E1,1.3335798E0,1.35627E1,1.0004616E0,1.0429047E0,1.0727621E1],"tree_param":{"num_deleted":"0","num_feature":"437","num_nodes":"9","size_leaf_vector":"1"}},{"base_weights":[3.1193555E-3,-1.4798854E-1,3.9567834E-1,5.8835584E-1,-1.1904195E-1,1.8875055E-1,2.612173E-2],"categories":[],"categories_nodes":[],"categories_segments":[],"categories_sizes":[],"default_left":[0,0,0,0,0,0,0],"id":28,"left_children":[1,-1,3,5,-1,-1,-1],"loss_changes":[5.724097E0,0E0,2.7373714E0,2.2332907E-1,0E0,0E0,0E0],"parents":[2147483647,0,0,2,2,3,3],"right_children":[2,-1,4,6,-1,-1,-1],"split_conditions":[-1.65382E-2,-1.4798854E-1,-3.438798E-2,7.027187E-2,-1.1904195E-1,1.8875055E-1,2.612173E-2],"split_indices":[371,0,408,428,0,0,0],"split_type":[0,0,0,0,0,0,0],"sum_hessian":[2.7372015E1,1.1973804E1,1.53982115E1,1.2593842E1,2.8043702E0,1.1409784E1,1.1840569E0],"tree_param":{"num_deleted":"0","num_feature":"437","num_nodes":"7","size_leaf_vector":"1"}},{"base_weights":[-5.6728264E-3,5.3531873E-1,-4.693488E-1,-3.409155E-2,1.8343785E-1,-8.451631E-3,-1.494649E-1],"categories":[],"categories_nodes":[],"categories_segments":[],"categories_sizes":[],"default_left":[0,0,0,0,0,0,0],"id":29,"left_children":[1,3,5,-1,-1,-1,-1],"loss_changes":[7.2151356E0,7.2566867E-1,1.8313742E-1,0E0,0E0,0E0,0E0],"parents":[2147483647,0,0,1,1,2,2],"right_children":[2,4,6,-1,-1,-1,-1],"split_conditions":[-8.054838E-1,6.877458E-1,-7.9025865E-1,-3.409155E-2,1.8343785E-1,-8.451631E-3,-1.494649E-1],"split_indices":[420,30,22,0,0,0,0],"split_type":[0,0,0,0,0,0,0],"sum_hessian":[2.6761728E1,1.2279811E1,1.4481917E1,1.2377591E0,1.1042052E1,1.0107503E0,1.3471167E1],"tree_param":{"num_deleted":"0","num_feature":"437","num_nodes":"7","size_leaf_vector":"1"}},{"base_weights":[-8.989978E-3,-4.0858465E-1,2.9908863E-1,3.4689303E-2,-1.422088E-1,-1.1258543E-1,4.6471575E-1,1.6589023E-1,-4.0940076E-2],"categories":[],"categories_nodes":[],"categories_segments":[],"categories_sizes":[],"default_left":[0,0,0,0,0,0,0,0,0],"id":30,"left_children":[1,3,5,-1,-1,-1,7,-1,-1],"loss_changes":[3.0671866E0,4.2659688E-1,1.74765E0,0E0,0E0,0E0,6.9911647E-1,0E0,0E0],"parents":[2147483647,0,0,1,1,2,2,6,6],"right_children":[2,4,6,-1,-1,-1,8,-1,-1],"split_conditions":[-1.5978375E-1,-1.2741853E0,-8.280112E-1,3.4689303E-2,-1.422088E-1,-1.1258543E-1,-3.0691072E-1,1.6589023E-1,-4.0940076E-2],"split_indices":[174,342,395,0,0,0,399,0,0],"split_type":[0,0,0,0,0,0,0,0,0],"sum_hessian":[2.2922228E1,9.836943E0,1.3085285E1,1.006663E0,8.83028E0,2.3304992E0,1.0754786E1,9.448044E0,1.3067416E0],"tree_param":{"num_deleted":"0","num_feature":"437","num_nodes":"9","size_leaf_vector":"1"}},{"base_weights":[5.73613E-3,-1.4361839E-1,3.6175388E-1,5.133344E-1,-2.5575772E-1,1.7081311E-1,-1.4828661E-2,-1.4124815E-2,-9.603538E-2],"categories":[],"categories_nodes":[],"categories_segments":[],"categories_sizes":[],"default_left":[0,0,0,0,0,0,0,0,0],"id":31,"left_children":[1,-1,3,5,7,-1,-1,-1,-1],"loss_changes":[4.3247857E0,0E0,1.4832909E0,4.0439463E-1,3.212543E-2,0E0,0E0,0E0,0E0],"parents":[2147483647,0,0,2,2,3,3,4,4],"right_children":[2,-1,4,6,8,-1,-1,-1,-1],"split_conditions":[1.2777987E-1,-1.4361839E-1,3.6414307E-1,-1.7848399E-2,-1.803534E-1,1.7081311E-1,-1.4828661E-2,-1.4124815E-2,-9.603538E-2],"split_indices":[396,0,38,176,372,0,0,0,0],"split_type":[0,0,0,0,0,0,0,0,0],"sum_hessian":[2.3070366E1,9.626324E0,1.3444043E1,1.0929809E1,2.514234E0,9.929255E0,1.0005548E0,1.0008218E0,1.5134124E0],"tree_param":{"num_deleted":"0","num_feature":"437","num_nodes":"9","size_leaf_vector":"1"}},{"base_weights":[8.32586E-3,4.4353274E-1,-1.4505818E-1,5.342668E-1,-8.478303E-2,1.7475408E-1,1.6587738E-2],"categories":[],"categories_nodes":[],"categories_segments":[],"categories_sizes":[],"default_left":[0,0,0,0,0,0,0],"id":32,"left_children":[1,3,-1,5,-1,-1,-1],"loss_changes":[5.3331375E0,1.0212388E0,0E0,2.4711561E-1,0E0,0E0,0E0],"parents":[2147483647,0,0,1,1,3,3],"right_children":[2,4,-1,6,-1,-1,-1],"split_conditions":[-3.2167026E-1,-1.587519E-1,-1.4505818E-1,-5.935298E-1,-8.478303E-2,1.7475408E-1,1.6587738E-2],"split_indices":[218,254,0,349,0,0,0],"split_type":[0,0,0,0,0,0,0],"sum_hessian":[2.2912588E1,1.2208431E1,1.0704157E1,1.1087277E1,1.1211543E0,9.876279E0,1.2109985E0],"tree_param":{"num_deleted":"0","num_feature":"437","num_nodes":"7","size_leaf_vector":"1"}},{"base_weights":[1.0151009E-3,-1.4305663E-1,3.6034325E-1,5.3476167E-1,-1.1074357E-1,1.7259316E-1,1.7213894E-2],"categories":[],"categories_nodes":[],"categories_segments":[],"categories_sizes":[],"default_left":[0,0,0,0,0,0,0],"id":33,"left_children":[1,-1,3,5,-1,-1,-1],"loss_changes":[4.2006936E0,0E0,1.9738913E0,1.9301224E-1,0E0,0E0,0E0],"parents":[2147483647,0,0,2,2,3,3],"right_children":[2,-1,4,6,-1,-1,-1],"split_conditions":[-1.65382E-2,-1.4305663E-1,-3.438798E-2,3.5486528E-1,-1.1074357E-1,1.7259316E-1,1.7213894E-2],"split_indices":[371,0,408,399,0,0,0],"split_type":[0,0,0,0,0,0,0],"sum_hessian":[2.2462858E1,9.500743E0,1.2962114E1,1.0676365E1,2.2857494E0,9.651434E0,1.024931E0],"tree_param":{"num_deleted":"0","num_feature":"437","num_nodes":"7","size_leaf_vector":"1"}},{"base_weights":[-6.362346E-3,-1.450758E-1,4.6091318E-1,-8.502436E-2,1.7000158E-1],"categories":[],"categories_nodes":[],"categories_segments":[],"categories_sizes":[],"default_left":[0,0,0,0,0],"id":34,"left_children":[1,-1,3,-1,-1],"loss_changes":[5.337255E0,0E0,1.1131232E0,0E0,0E0],"parents":[2147483647,0,0,2,2],"right_children":[2,-1,4,-1,-1],"split_conditions":[6.6056496E-1,-1.450758E-1,3.6772156E-1,-8.502436E-2,1.7000158E-1],"split_indices":[55,0,33,0,0],"split_type":[0,0,0,0,0],"sum_hessian":[2.193489E1,1.083466E1,1.1100231E1,1.1719877E0,9.928244E0],"tree_param":{"num_deleted":"0","num_feature":"437","num_nodes":"5","size_leaf_vector":"1"}},{"base_weights":[-7.602788E-3,2.3153447E-1,-1.3549708E-1,4.1995916E-1,-1.1499735E-1,-5.023448E-2,5.0891787E-1,3.543453E-2,1.6334331E-1],"categories":[],"categories_nodes":[],"categories_segments":[],"categories_sizes":[],"default_left":[0,0,0,0,0,0,0,0,0],"id":35,"left_children":[1,3,-1,5,-1,-1,7,-1,-1],"loss_changes":[2.210208E0,1.7307329E0,0E0,6.520945E-1,0E0,0E0,7.0058346E-2,0E0,0E0],"parents":[2147483647,0,0,1,1,3,3,6,6],"right_children":[2,4,-1,6,-1,-1,8,-1,-1],"split_conditions":[-4.13022E-1,7.173604E-1,-1.3549708E-1,-4.237175E-1,-1.1499735E-1,-5.023448E-2,-5.102014E-1,3.543453E-2,1.6334331E-1],"split_indices":[406,30,0,394,0,0,54,0,0],"split_type":[0,0,0,0,0,0,0,0,0],"sum_hessian":[1.8828949E1,1.2549328E1,6.279622E0,9.848285E0,2.7010427E0,1.1792446E0,8.669041E0,1.0834546E0,7.585586E0],"tree_param":{"num_deleted":"0","num_feature":"437","num_nodes":"9","size_leaf_vector":"1"}},{"base_weights":[6.0121748E-3,-3.552699E-1,4.332197E-1,-1.4126818E-1,8.69834E-2,-2.1655826E-2,1.5189347E-1],"categories":[],"categories_nodes":[],"categories_segments":[],"categories_sizes":[],"default_left":[0,0,0,0,0,0,0],"id":36,"left_children":[1,3,5,-1,-1,-1,-1],"loss_changes":[3.2346115E0,9.843104E-1,3.910433E-1,0E0,0E0,0E0,0E0],"parents":[2147483647,0,0,1,1,2,2],"right_children":[2,4,6,-1,-1,-1,-1],"split_conditions":[4.040712E-1,1.29707E0,-5.0992984E-1,-1.4126818E-1,8.69834E-2,-2.1655826E-2,1.5189347E-1],"split_indices":[397,349,349,0,0,0,0],"split_type":[0,0,0,0,0,0,0],"sum_hessian":[1.8960175E1,1.036395E1,8.596224E0,9.0180645E0,1.3458847E0,1.0876789E0,7.5085454E0],"tree_param":{"num_deleted":"0","num_feature":"437","num_nodes":"7","size_leaf_vector":"1"}},{"base_weights":[9.391016E-3,4.0738875E-1,-1.4013311E-1,-3.555284E-2,1.6158849E-1,9.284042E-2,-9.434643E-2],"categories":[],"categories_nodes":[],"categories_segments":[],"categories_sizes":[],"default_left":[0,0,0,0,0,0,0],"id":37,"left_children":[1,3,-1,5,-1,-1,-1],"loss_changes":[3.928186E0,6.745069E-1,0E0,4.355919E-1,0E0,0E0,0E0],"parents":[2147483647,0,0,1,1,3,3],"right_children":[2,4,-1,6,-1,-1,-1],"split_conditions":[-3.2167026E-1,1.1040206E-1,-1.4013311E-1,-4.0972278E-1,1.6158849E-1,9.284042E-2,-9.434643E-2],"split_indices":[218,392,0,102,0,0,0],"split_type":[0,0,0,0,0,0,0],"sum_hessian":[1.8709782E1,1.0273709E1,8.436072E0,2.5148919E0,7.758817E0,1.0753305E0,1.4395612E0],"tree_param":{"num_deleted":"0","num_feature":"437","num_nodes":"7","size_leaf_vector":"1"}},{"base_weights":[3.619089E-4,-1.3797304E-1,3.3192158E-1,1.5396996E-1,-8.188318E-2],"categories":[],"categories_nodes":[],"categories_segments":[],"categories_sizes":[],"default_left":[0,0,0,0,0],"id":38,"left_children":[1,-1,3,-1,-1],"loss_changes":[3.0966814E0,0E0,1.4335736E0,0E0,0E0],"parents":[2147483647,0,0,2,2],"right_children":[2,-1,4,-1,-1],"split_conditions":[-1.65382E-2,-1.3797304E-1,-1.7290989E-1,1.5396996E-1,-8.188318E-2],"split_indices":[371,0,392,0,0],"split_type":[0,0,0,0,0],"sum_hessian":[1.8291481E1,7.4970055E0,1.0794475E1,8.42156E0,2.3729148E0],"tree_param":{"num_deleted":"0","num_feature":"437","num_nodes":"5","size_leaf_vector":"1"}},{"base_weights":[-8.632837E-3,-1.4034969E-1,4.2709938E-1,-5.0967272E-2,1.5771756E-1],"categories":[],"categories_nodes":[],"categories_segments":[],"categories_sizes":[],"default_left":[0,0,0,0,0],"id":39,"left_children":[1,-1,3,-1,-1],"loss_changes":[3.9389527E0,0E0,6.846682E-1,0E0,0E0],"parents":[2147483647,0,0,2,2],"right_children":[2,-1,4,-1,-1],"split_conditions":[6.6056496E-1,-1.4034969E-1,4.614153E-1,-5.0967272E-2,1.5771756E-1],"split_indices":[55,0,33,0,0],"split_type":[0,0,0,0,0],"sum_hessian":[1.7687487E1,8.575971E0,9.111516E0,1.1893996E0,7.9221163E0],"tree_param":{"num_deleted":"0","num_feature":"437","num_nodes":"5","size_leaf_vector":"1"}},{"base_weights":[-1.0314797E-2,-3.962737E-1,2.3639911E-1,-1.2858602E-1,-3.166302E-2,3.8366553E-1,-9.895379E-2,1.4807093E-1,-5.4660924E-2],"categories":[],"categories_nodes":[],"categories_segments":[],"categories_sizes":[],"default_left":[0,0,0,0,0,0,0,0,0],"id":40,"left_children":[1,3,5,-1,-1,7,-1,-1,-1],"loss_changes":[1.6532459E0,1.8337846E-2,1.0119623E0,0E0,0E0,6.4272726E-1,0E0,0E0,0E0],"parents":[2147483647,0,0,1,1,2,2,5,5],"right_children":[2,4,6,-1,-1,8,-1,-1,-1],"split_conditions":[-3.2053018E-1,1.992749E-1,7.173604E-1,-1.2858602E-1,-3.166302E-2,7.8547776E-1,-9.895379E-2,1.4807093E-1,-5.4660924E-2],"split_indices":[203,220,30,0,0,349,0,0,0],"split_type":[0,0,0,0,0,0,0,0,0],"sum_hessian":[1.5378322E1,5.7604594E0,9.617862E0,4.7569222E0,1.0035375E0,7.8886557E0,1.7292063E0,6.7126727E0,1.1759833E0],"tree_param":{"num_deleted":"0","num_feature":"437","num_nodes":"9","size_leaf_vector":"1"}},{"base_weights":[9.623038E-3,-1.3341697E-1,3.1552094E-1,4.2848054E-1,-8.685012E-2,1.5404144E-1,-1.5918003E-2],"categories":[],"categories_nodes":[],"categories_segments":[],"categories_sizes":[],"default_left":[0,0,0,0,0,0,0],"id":41,"left_children":[1,-1,3,5,-1,-1,-1],"loss_changes":[2.4374068E0,0E0,8.390832E-1,4.0457332E-1,0E0,0E0,0E0],"parents":[2147483647,0,0,2,2,3,3],"right_children":[2,-1,4,6,-1,-1,-1],"split_conditions":[1.2777987E-1,-1.3341697E-1,2.5474444E-2,1.7862202E-1,-8.685012E-2,1.5404144E-1,-1.5918003E-2],"split_indices":[396,0,390,38,0,0,0],"split_type":[0,0,0,0,0,0,0],"sum_hessian":[1.5527763E1,6.0652685E0,9.462494E0,8.219649E0,1.2428446E0,6.930178E0,1.2894716E0],"tree_param":{"num_deleted":"0","num_feature":"437","num_nodes":"7","size_leaf_vector":"1"}},{"base_weights":[1.1229842E-2,4.0781793E-1,-4.2084014E-1,-3.4971314E-3,1.507097E-1,-1.3431679E-1,-3.39569E-2],"categories":[],"categories_nodes":[],"categories_segments":[],"categories_sizes":[],"default_left":[0,0,0,0,0,0,0],"id":42,"left_children":[1,3,5,-1,-1,-1,-1],"loss_changes":[2.9545584E0,3.6184764E-1,1.7676234E-2,0E0,0E0,0E0,0E0],"parents":[2147483647,0,0,1,1,2,2],"right_children":[2,4,6,-1,-1,-1,-1],"split_conditions":[-3.0364484E-1,-6.1687045E-3,3.21467E-1,-3.4971314E-3,1.507097E-1,-1.3431679E-1,-3.39569E-2],"split_indices":[213,408,381,0,0,0,0],"split_type":[0,0,0,0,0,0,0],"sum_hessian":[1.5240854E1,7.9759893E0,7.264865E0,1.6283369E0,6.3476524E0,6.262364E0,1.0025011E0],"tree_param":{"num_deleted":"0","num_feature":"437","num_nodes":"7","size_leaf_vector":"1"}},{"base_weights":[-3.8494368E-4,-1.3272102E-1,3.0708104E-1,4.5664412E-1,-9.430583E-2,1.5036933E-1,1.8743498E-2],"categories":[],"categories_nodes":[],"categories_segments":[],"categories_sizes":[],"default_left":[0,0,0,0,0,0,0],"id":43,"left_children":[1,-1,3,5,-1,-1,-1],"loss_changes":[2.3014278E0,0E0,1.071849E0,1.1733067E-1,0E0,0E0,0E0],"parents":[2147483647,0,0,2,2,3,3],"right_children":[2,-1,4,6,-1,-1,-1],"split_conditions":[-1.65382E-2,-1.3272102E-1,-3.438798E-2,1.8165593E-1,-9.430583E-2,1.5036933E-1,1.8743498E-2],"split_indices":[371,0,408,398,0,0,0],"split_type":[0,0,0,0,0,0,0],"sum_hessian":[1.4934396E1,5.946596E0,8.9878E0,7.458023E0,1.5297772E0,6.456102E0,1.001921E0],"tree_param":{"num_deleted":"0","num_feature":"437","num_nodes":"7","size_leaf_vector":"1"}},{"base_weights":[-1.0911892E-2,-1.3515705E-1,4.0041083E-1,-3.9983727E-2,1.4751522E-1],"categories":[],"categories_nodes":[],"categories_segments":[],"categories_sizes":[],"default_left":[0,0,0,0,0],"id":44,"left_children":[1,-1,3,-1,-1],"loss_changes":[2.937118E0,0E0,4.7513545E-1,0E0,0E0],"parents":[2147483647,0,0,2,2],"right_children":[2,-1,4,-1,-1],"split_conditions":[6.7560166E-1,-1.3515705E-1,-1.8554018E-1,-3.9983727E-2,1.4751522E-1],"split_indices":[30,0,173,0,0],"split_type":[0,0,0,0,0],"sum_hessian":[1.4245491E1,6.839886E0,7.4056053E0,1.0147378E0,6.3908677E0],"tree_param":{"num_deleted":"0","num_feature":"437","num_nodes":"5","size_leaf_vector":"1"}},{"base_weights":[-1.4052164E-2,2.0120649E-1,-1.2422001E-1,3.645628E-1,-9.877587E-2,-1.11544E-2,1.3641568E-1],"categories":[],"categories_nodes":[],"categories_segments":[],"categories_sizes":[],"default_left":[0,0,0,0,0,0,0],"id":45,"left_children":[1,3,-1,5,-1,-1,-1],"loss_changes":[1.2568182E0,9.4614345E-1,0E0,2.980944E-1,0E0,0E0,0E0],"parents":[2147483647,0,0,1,1,3,3],"right_children":[2,4,-1,6,-1,-1,-1],"split_conditions":[-4.13022E-1,6.717308E-1,-1.2422001E-1,-2.60471E-1,-9.877587E-2,-1.11544E-2,1.3641568E-1],"split_indices":[406,32,0,401,0,0,0],"split_type":[0,0,0,0,0,0,0],"sum_hessian":[1.2628518E1,8.533443E0,4.0950747E0,6.7633834E0,1.7700598E0,1.3472956E0,5.4160876E0],"tree_param":{"num_deleted":"0","num_feature":"437","num_nodes":"7","size_leaf_vector":"1"}},{"base_weights":[9.329349E-3,-1.276835E-1,2.910463E-1,4.0320867E-1,-8.09989E-2,6.612063E-3,1.3894361E-1],"categories":[],"categories_nodes":[],"categories_segments":[],"categories_sizes":[],"default_left":[0,0,0,0,0,0,0],"id":46,"left_children":[1,-1,3,5,-1,-1,-1],"loss_changes":[1.806473E0,0E0,6.706807E-1,1.6893911E-1,0E0,0E0,0E0],"parents":[2147483647,0,0,2,2,3,3],"right_children":[2,-1,4,6,-1,-1,-1],"split_conditions":[1.2777987E-1,-1.276835E-1,6.983249E-1,1.5798207E-1,-8.09989E-2,6.612063E-3,1.3894361E-1],"split_indices":[396,0,38,398,0,0,0],"split_type":[0,0,0,0,0,0,0],"sum_hessian":[1.2732121E1,4.8041883E0,7.9279327E0,6.8415155E0,1.0864176E0,1.1154587E0,5.7260566E0],"tree_param":{"num_deleted":"0","num_feature":"437","num_nodes":"7","size_leaf_vector":"1"}},{"base_weights":[1.18179275E-2,3.8353187E-1,-1.21470466E-1,1.3814303E-1,-1.3140113E-2],"categories":[],"categories_nodes":[],"categories_segments":[],"categories_sizes":[],"default_left":[0,0,0,0,0],"id":47,"left_children":[1,3,-1,-1,-1],"loss_changes":[2.2508395E0,2.721641E-1,0E0,0E0,0E0],"parents":[2147483647,0,0,1,1],"right_children":[2,4,-1,-1,-1],"split_conditions":[-4.7445565E-1,-5.935298E-1,-1.21470466E-1,1.3814303E-1,-1.3140113E-2],"split_indices":[225,349,0,0,0],"split_type":[0,0,0,0,0],"sum_hessian":[1.2528349E1,6.6638403E0,5.864508E0,5.5813146E0,1.0825258E0],"tree_param":{"num_deleted":"0","num_feature":"437","num_nodes":"5","size_leaf_vector":"1"}},{"base_weights":[3.7358038E-3,-3.4197366E-1,3.6756682E-1,3.578573E-2,-1.3029046E-1,-2.1755807E-2,1.3903297E-1],"categories":[],"categories_nodes":[],"categories_segments":[],"categories_sizes":[],"default_left":[0,0,0,0,0,0,0],"id":48,"left_children":[1,3,5,-1,-1,-1,-1],"loss_changes":[1.7968007E0,3.639977E-1,3.270784E-1,0E0,0E0,0E0,0E0],"parents":[2147483647,0,0,1,1,2,2],"right_children":[2,4,6,-1,-1,-1,-1],"split_conditions":[4.0464574E-1,-2.0849374E-1,-3.0132094E-1,3.578573E-2,-1.3029046E-1,-2.1755807E-2,1.3903297E-1],"split_indices":[370,287,238,0,0,0,0],"split_type":[0,0,0,0,0,0,0],"sum_hessian":[1.2285935E1,6.3306627E0,5.955272E0,1.007138E0,5.323525E0,1.1088965E0,4.8463755E0],"tree_param":{"num_deleted":"0","num_feature":"437","num_nodes":"7","size_leaf_vector":"1"}},{"base_weights":[-1.1700962E-2,-1.3035996E-1,3.7699187E-1,1.3819519E-1,-1.6044095E-2],"categories":[],"categories_nodes":[],"categories_segments":[],"categories_sizes":[],"default_left":[0,0,0,0,0],"id":49,"left_children":[1,-1,3,-1,-1],"loss_changes":[2.2161114E0,0E0,2.782272E-1,0E0,0E0],"parents":[2147483647,0,0,2,2],"right_children":[2,-1,4,-1,-1],"split_conditions":[6.6056496E-1,-1.3035996E-1,-7.077658E-1,1.3819519E-1,-1.6044095E-2],"split_indices":[55,0,418,0,0],"split_type":[0,0,0,0,0],"sum_hessian":[1.1487207E1,5.4454937E0,6.041714E0,4.999916E0,1.0417981E0],"tree_param":{"num_deleted":"0","num_feature":"437","num_nodes":"5","size_leaf_vector":"1"}},{"base_weights":[-1.624134E-2,2.3382556E-1,-3.271925E-1,-8.7124966E-2,1.21716894E-1,-1.198822E-1,-2.9078196E-4],"categories":[],"categories_nodes":[],"categories_segments":[],"categories_sizes":[],"default_left":[0,0,0,0,0,0,0],"id":50,"left_children":[1,3,5,-1,-1,-1,-1],"loss_changes":[9.6868914E-1,7.434745E-1,1.3027549E-1,0E0,0E0,0E0,0E0],"parents":[2147483647,0,0,1,1,2,2],"right_children":[2,4,6,-1,-1,-1,-1],"split_conditions":[-5.64597E-1,-8.152775E-1,-2.1262069E-1,-8.7124966E-2,1.21716894E-1,-1.198822E-1,-2.9078196E-4],"split_indices":[406,396,207,0,0,0,0],"split_type":[0,0,0,0,0,0,0],"sum_hessian":[1.0473757E1,5.942683E0,4.531074E0,1.297172E0,4.645511E0,3.5238922E0,1.0071821E0],"tree_param":{"num_deleted":"0","num_feature":"437","num_nodes":"7","size_leaf_vector":"1"}},{"base_weights":[9.617736E-3,-3.0594563E-1,3.5831448E-1,-1.2629893E-1,5.0925817E-2,1.4708489E-2,1.2930796E-1],"categories":[],"categories_nodes":[],"categories_segments":[],"categories_sizes":[],"default_left":[0,0,0,0,0,0,0],"id":51,"left_children":[1,3,5,-1,-1,-1,-1],"loss_changes":[1.3831662E0,4.3350118E-1,1.128754E-1,0E0,0E0,0E0,0E0],"parents":[2147483647,0,0,1,1,2,2],"right_children":[2,4,6,-1,-1,-1,-1],"split_conditions":[4.040712E-1,1.1920879E0,-2.1932171E-1,-1.2629893E-1,5.0925817E-2,1.4708489E-2,1.2930796E-1],"split_indices":[397,349,84,0,0,0,0],"split_type":[0,0,0,0,0,0,0],"sum_hessian":[1.057387E1,5.615007E0,4.958863E0,4.614059E0,1.000948E0,1.2625958E0,3.6962671E0],"tree_param":{"num_deleted":"0","num_feature":"437","num_nodes":"7","size_leaf_vector":"1"}},{"base_weights":[1.2372448E-2,3.365817E-1,-1.2487307E-1,1.3671832E-1,-3.1612348E-2],"categories":[],"categories_nodes":[],"categories_segments":[],"categories_sizes":[],"default_left":[0,0,0,0,0],"id":52,"left_children":[1,3,-1,-1,-1],"loss_changes":[1.7242265E0,4.1890293E-1,0E0,0E0,0E0],"parents":[2147483647,0,0,1,1],"right_children":[2,4,-1,-1,-1],"split_conditions":[-4.0059215E-1,-5.935298E-1,-1.2487307E-1,1.3671832E-1,-3.1612348E-2],"split_indices":[236,349,0,0,0],"split_type":[0,0,0,0,0],"sum_hessian":[1.0399771E1,6.043291E0,4.356479E0,4.735498E0,1.3077931E0],"tree_param":{"num_deleted":"0","num_feature":"437","num_nodes":"5","size_leaf_vector":"1"}},{"base_weights":[5.655054E-3,-1.2156609E-1,2.7638367E-1,1.2888719E-1,-6.366583E-2],"categories":[],"categories_nodes":[],"categories_segments":[],"categories_sizes":[],"default_left":[0,0,0,0,0],"id":53,"left_children":[1,-1,3,-1,-1],"loss_changes":[1.3525858E0,0E0,6.390619E-1,0E0,0E0],"parents":[2147483647,0,0,2,2],"right_children":[2,-1,4,-1,-1],"split_conditions":[-1.65382E-2,-1.2156609E-1,-1.7290989E-1,1.2888719E-1,-6.366583E-2],"split_indices":[371,0,392,0,0],"split_type":[0,0,0,0,0],"sum_hessian":[1.0152799E1,3.8353088E0,6.31749E0,4.901078E0,1.4164122E0],"tree_param":{"num_deleted":"0","num_feature":"437","num_nodes":"5","size_leaf_vector":"1"}},{"base_weights":[-1.2444289E-2,3.8156742E-1,-1.1758139E-1,1.2707143E-1,2.9516509E-2],"categories":[],"categories_nodes":[],"categories_segments":[],"categories_sizes":[],"default_left":[0,0,0,0,0],"id":54,"left_children":[1,3,-1,-1,-1],"loss_changes":[1.7004958E0,2.4883151E-2,0E0,0E0,0E0],"parents":[2147483647,0,0,1,1],"right_children":[2,4,-1,-1,-1],"split_conditions":[-8.054838E-1,-7.8557664E-1,-1.1758139E-1,1.2707143E-1,2.9516509E-2],"split_indices":[420,397,0,0,0],"split_type":[0,0,0,0,0],"sum_hessian":[9.372484E0,4.5956044E0,4.7768803E0,3.5702558E0,1.0253487E0],"tree_param":{"num_deleted":"0","num_feature":"437","num_nodes":"5","size_leaf_vector":"1"}},{"base_weights":[-2.0450838E-2,-3.1644386E-1,2.1493095E-1,-1.1195413E-1,-1.5863871E-2,3.5519475E-1,-6.5842465E-2,2.6926398E-2,1.2011154E-1],"categories":[],"categories_nodes":[],"categories_segments":[],"categories_sizes":[],"default_left":[0,0,0,0,0,0,0,0,0],"id":55,"left_children":[1,3,5,-1,-1,7,-1,-1,-1],"loss_changes":[7.46815E-1,5.085203E-2,4.4492385E-1,0E0,0E0,2.3238957E-2,0E0,0E0,0E0],"parents":[2147483647,0,0,1,1,2,2,5,5],"right_children":[2,4,6,-1,-1,8,-1,-1,-1],"split_conditions":[-1.5978375E-1,4.2421854E-1,3.0239546E-1,-1.1195413E-1,-1.5863871E-2,-3.429993E-1,-6.5842465E-2,2.6926398E-2,1.2011154E-1],"split_indices":[174,355,35,0,0,214,0,0,0],"split_type":[0,0,0,0,0,0,0,0,0],"sum_hessian":[8.742903E0,3.7202704E0,5.0226326E0,2.7190511E0,1.0012194E0,3.9345598E0,1.0880729E0,1.0066526E0,2.9279072E0],"tree_param":{"num_deleted":"0","num_feature":"437","num_nodes":"9","size_leaf_vector":"1"}},{"base_weights":[1.5559268E-2,-1.1624335E-1,2.647135E-1,1.1702768E-1,-4.0768795E-2],"categories":[],"categories_nodes":[],"categories_segments":[],"categories_sizes":[],"default_left":[0,0,0,0,0],"id":56,"left_children":[1,-1,3,-1,-1],"loss_changes":[1.0926476E0,0E0,3.8888806E-1,0E0,0E0],"parents":[2147483647,0,0,2,2],"right_children":[2,-1,4,-1,-1],"split_conditions":[1.2777987E-1,-1.1624335E-1,1.7862202E-1,1.1702768E-1,-4.0768795E-2],"split_indices":[396,0,38,0,0],"split_type":[0,0,0,0,0],"sum_hessian":[8.859519E0,3.1724787E0,5.6870403E0,4.351427E0,1.335613E0],"tree_param":{"num_deleted":"0","num_feature":"437","num_nodes":"5","size_leaf_vector":"1"}},{"base_weights":[1.2177608E-2,3.1399578E-1,-1.19223334E-1,-1.1482344E-2,1.2828436E-1],"categories":[],"categories_nodes":[],"categories_segments":[],"categories_sizes":[],"default_left":[0,0,0,0,0],"id":57,"left_children":[1,3,-1,-1,-1],"loss_changes":[1.3177813E0,2.6110846E-1,0E0,0E0,0E0],"parents":[2147483647,0,0,1,1],"right_children":[2,4,-1,-1,-1],"split_conditions":[-3.2167026E-1,1.1040206E-1,-1.19223334E-1,-1.1482344E-2,1.2828436E-1],"split_indices":[218,392,0,0,0],"split_type":[0,0,0,0,0],"sum_hessian":[8.650406E0,5.1147966E0,3.535609E0,1.4090933E0,3.7057035E0],"tree_param":{"num_deleted":"0","num_feature":"437","num_nodes":"5","size_leaf_vector":"1"}},{"base_weights":[2.2709165E-3,-3.0973333E-1,3.2441553E-1,6.6686715E-3,-1.1769199E-1,2.9464676E-3,1.2152503E-1],"categories":[],"categories_nodes":[],"categories_segments":[],"categories_sizes":[],"default_left":[0,0,0,0,0,0,0],"id":58,"left_children":[1,3,5,-1,-1,-1,-1],"loss_changes":[1.0462618E0,1.5377218E-1,1.2590587E-1,0E0,0E0,0E0,0E0],"parents":[2147483647,0,0,1,1,2,2],"right_children":[2,4,6,-1,-1,-1,-1],"split_conditions":[4.0464574E-1,-2.3818882E-1,-2.998762E-1,6.6686715E-3,-1.1769199E-1,2.9464676E-3,1.2152503E-1],"split_indices":[370,198,238,0,0,0,0],"split_type":[0,0,0,0,0,0,0],"sum_hessian":[8.409759E0,4.291689E0,4.118069E0,1.0004528E0,3.2912362E0,1.0693805E0,3.048689E0],"tree_param":{"num_deleted":"0","num_feature":"437","num_nodes":"7","size_leaf_vector":"1"}},{"base_weights":[-1.0628989E-2,-1.1965394E-1,3.3913285E-1,1.2111359E-1,1.3913398E-2],"categories":[],"categories_nodes":[],"categories_segments":[],"categories_sizes":[],"default_left":[0,0,0,0,0],"id":59,"left_children":[1,-1,3,-1,-1],"loss_changes":[1.3238842E0,0E0,7.8555465E-2,0E0,0E0],"parents":[2147483647,0,0,2,2],"right_children":[2,-1,4,-1,-1],"split_conditions":[7.7833796E-1,-1.1965394E-1,-7.8557664E-1,1.2111359E-1,1.3913398E-2],"split_indices":[54,0,397,0,0],"split_type":[0,0,0,0,0],"sum_hessian":[7.7537956E0,3.6083632E0,4.145433E0,3.0857365E0,1.0596961E0],"tree_param":{"num_deleted":"0","num_feature":"437","num_nodes":"5","size_leaf_vector":"1"}},{"base_weights":[-1.9455653E-2,-9.771005E-2,1.8401337E-1,-5.064501E-2,3.1618637E-1,1.1591809E-1,1.0654684E-2],"categories":[],"categories_nodes":[],"categories_segments":[],"categories_sizes":[],"default_left":[0,0,0,0,0,0,0],"id":60,"left_children":[1,-1,3,-1,5,-1,-1],"loss_changes":[5.865694E-1,0E0,3.1998342E-1,0E0,7.508826E-2,0E0,0E0],"parents":[2147483647,0,0,2,2,4,4],"right_children":[2,-1,4,-1,6,-1,-1],"split_conditions":[-3.2053018E-1,-9.771005E-2,-6.554209E-1,-5.064501E-2,-5.901608E-1,1.1591809E-1,1.0654684E-2],"split_indices":[203,0,421,0,406,0,0],"split_type":[0,0,0,0,0,0,0],"sum_hessian":[7.4517007E0,2.7347891E0,4.7169113E0,1.2098988E0,3.5070128E0,2.503984E0,1.0030289E0],"tree_param":{"num_deleted":"0","num_feature":"437","num_nodes":"7","size_leaf_vector":"1"}},{"base_weights":[1.4945772E-2,-2.7697027E-1,3.223452E-1,-1.1367505E-1,1.7422367E-2,1.5170129E-2,1.1553247E-1],"categories":[],"categories_nodes":[],"categories_segments":[],"categories_sizes":[],"default_left":[0,0,0,0,0,0,0],"id":61,"left_children":[1,3,5,-1,-1,-1,-1],"loss_changes":[8.5642695E-1,1.9015226E-1,5.9438676E-2,0E0,0E0,0E0,0E0],"parents":[2147483647,0,0,1,1,2,2],"right_children":[2,4,6,-1,-1,-1,-1],"split_conditions":[4.040712E-1,1.1415542E0,-2.1932171E-1,-1.1367505E-1,1.7422367E-2,1.5170129E-2,1.1553247E-1],"split_indices":[397,29,84,0,0,0,0],"split_type":[0,0,0,0,0,0,0],"sum_hessian":[7.549044E0,3.9228103E0,3.6262336E0,2.9072547E0,1.0155556E0,1.0190781E0,2.6071556E0],"tree_param":{"num_deleted":"0","num_feature":"437","num_nodes":"7","size_leaf_vector":"1"}},{"base_weights":[1.2469E-2,2.9765043E-1,-1.1386039E-1,1.2371172E-1,-2.8642772E-2],"categories":[],"categories_nodes":[],"categories_segments":[],"categories_sizes":[],"default_left":[0,0,0,0,0],"id":62,"left_children":[1,3,-1,-1,-1],"loss_changes":[1.0425463E0,2.8173646E-1,0E0,0E0,0E0],"parents":[2147483647,0,0,1,1],"right_children":[2,4,-1,-1,-1],"split_conditions":[-4.0059215E-1,-5.935298E-1,-1.1386039E-1,1.2371172E-1,-2.8642772E-2],"split_indices":[236,349,0,0,0],"split_type":[0,0,0,0,0],"sum_hessian":[7.315232E0,4.373916E0,2.9413157E0,3.3479595E0,1.0259566E0],"tree_param":{"num_deleted":"0","num_feature":"437","num_nodes":"5","size_leaf_vector":"1"}},{"base_weights":[2.70459E-3,-1.1019549E-1,2.4530517E-1,1.1544729E-1,-5.2715205E-2],"categories":[],"categories_nodes":[],"categories_segments":[],"categories_sizes":[],"default_left":[0,0,0,0,0],"id":63,"left_children":[1,-1,3,-1,-1],"loss_changes":[8.196281E-1,0E0,3.9117205E-1,0E0,0E0],"parents":[2147483647,0,0,2,2],"right_children":[2,-1,4,-1,-1],"split_conditions":[-1.65382E-2,-1.1019549E-1,-1.7290989E-1,1.1544729E-1,-5.2715205E-2],"split_indices":[371,0,392,0,0],"split_type":[0,0,0,0,0],"sum_hessian":[7.1267824E0,2.6186457E0,4.5081363E0,3.450636E0,1.0575005E0],"tree_param":{"num_deleted":"0","num_feature":"437","num_nodes":"5","size_leaf_vector":"1"}},{"base_weights":[-1.1940764E-2,1.0093381E-1,-1.0839957E-1],"categories":[],"categories_nodes":[],"categories_segments":[],"categories_sizes":[],"default_left":[0,0,0],"id":64,"left_children":[1,-1,-1],"loss_changes":[1.028831E0,0E0,0E0],"parents":[2147483647,0,0],"right_children":[2,-1,-1],"split_conditions":[-7.133343E-1,1.0093381E-1,-1.0839957E-1],"split_indices":[419,0,0],"split_type":[0,0,0],"sum_hessian":[6.4534855E0,3.2499392E0,3.2035465E0],"tree_param":{"num_deleted":"0","num_feature":"437","num_nodes":"3","size_leaf_vector":"1"}},{"base_weights":[-1.9048529E-2,-2.7244422E-1,2.0058799E-1,-9.889007E-2,-1.6421756E-2,-3.1885378E-2,9.961267E-2],"categories":[],"categories_nodes":[],"categories_segments":[],"categories_sizes":[],"default_left":[0,0,0,0,0,0,0],"id":65,"left_children":[1,3,5,-1,-1,-1,-1],"loss_changes":[4.653022E-1,2.9890567E-2,2.1797033E-1,0E0,0E0,0E0,0E0],"parents":[2147483647,0,0,1,1,2,2],"right_children":[2,4,6,-1,-1,-1,-1],"split_conditions":[-1.4528865E-1,5.132535E-1,-3.423512E-1,-9.889007E-2,-1.6421756E-2,-3.1885378E-2,9.961267E-2],"split_indices":[173,361,419,0,0,0,0],"split_type":[0,0,0,0,0,0,0],"sum_hessian":[6.378556E0,2.8500302E0,3.5285254E0,1.8499374E0,1.0000929E0,1.115627E0,2.4128983E0],"tree_param":{"num_deleted":"0","num_feature":"437","num_nodes":"7","size_leaf_vector":"1"}},{"base_weights":[1.9777603E-2,-1.047195E-1,2.4081339E-1,1.054246E-1,-3.1635646E-2],"categories":[],"categories_nodes":[],"categories_segments":[],"categories_sizes":[],"default_left":[0,0,0,0,0],"id":66,"left_children":[1,-1,3,-1,-1],"loss_changes":[6.941301E-1,0E0,2.3891571E-1,0E0,0E0],"parents":[2147483647,0,0,2,2],"right_children":[2,-1,4,-1,-1],"split_conditions":[1.2777987E-1,-1.047195E-1,1.7862202E-1,1.054246E-1,-3.1635646E-2],"split_indices":[396,0,38,0,0],"split_type":[0,0,0,0,0],"sum_hessian":[6.4830112E0,2.2122328E0,4.270778E0,3.2256043E0,1.045174E0],"tree_param":{"num_deleted":"0","num_feature":"437","num_nodes":"5","size_leaf_vector":"1"}},{"base_weights":[1.2039822E-2,3.0013546E-1,-9.943345E-2,1.1455233E-2,1.1156168E-1],"categories":[],"categories_nodes":[],"categories_segments":[],"categories_sizes":[],"default_left":[0,0,0,0,0],"id":67,"left_children":[1,3,-1,-1,-1],"loss_changes":[8.1172097E-1,6.921914E-2,0E0,0E0,0E0],"parents":[2147483647,0,0,1,1],"right_children":[2,4,-1,-1,-1],"split_conditions":[-4.2360172E-1,2.3165548E-1,-9.943345E-2,1.1455233E-2,1.1156168E-1],"split_indices":[228,392,0,0,0],"split_type":[0,0,0,0,0],"sum_hessian":[6.197537E0,3.4391637E0,2.7583733E0,1.0687687E0,2.370395E0],"tree_param":{"num_deleted":"0","num_feature":"437","num_nodes":"5","size_leaf_vector":"1"}},{"base_weights":[-3.276499E-3,-2.8178662E-1,2.8430998E-1,-1.4906152E-2,-1.0250641E-1,1.6595565E-2,1.0334085E-1],"categories":[],"categories_nodes":[],"categories_segments":[],"categories_sizes":[],"default_left":[0,0,0,0,0,0,0],"id":68,"left_children":[1,3,5,-1,-1,-1,-1],"loss_changes":[6.3914686E-1,3.9301515E-2,3.5106152E-2,0E0,0E0,0E0,0E0],"parents":[2147483647,0,0,1,1,2,2],"right_children":[2,4,6,-1,-1,-1,-1],"split_conditions":[4.0464574E-1,-5.0248843E-1,-3.1884906E-1,-1.4906152E-2,-1.0250641E-1,1.6595565E-2,1.0334085E-1],"split_indices":[370,435,218,0,0,0,0],"split_type":[0,0,0,0,0,0,0],"sum_hessian":[5.9795485E0,3.0479555E0,2.9315932E0,1.0005634E0,2.0473921E0,1.0093039E0,1.9222891E0],"tree_param":{"num_deleted":"0","num_feature":"437","num_nodes":"7","size_leaf_vector":"1"}},{"base_weights":[-1.0981494E-2,-1.0864713E-1,3.0174795E-1,2.472824E-2,1.04360245E-1],"categories":[],"categories_nodes":[],"categories_segments":[],"categories_sizes":[],"default_left":[0,0,0,0,0],"id":69,"left_children":[1,-1,3,-1,-1],"loss_changes":[8.216657E-1,0E0,1.1549801E-2,0E0,0E0],"parents":[2147483647,0,0,2,2],"right_children":[2,-1,4,-1,-1],"split_conditions":[6.7560166E-1,-1.0864713E-1,-1.22761495E-1,2.472824E-2,1.04360245E-1],"split_indices":[30,0,183,0,0],"split_type":[0,0,0,0,0],"sum_hessian":[5.486673E0,2.5100226E0,2.9766502E0,1.0014639E0,1.9751865E0],"tree_param":{"num_deleted":"0","num_feature":"437","num_nodes":"5","size_leaf_vector":"1"}},{"base_weights":[-1.963967E-2,1.5129243E-1,-9.591536E-2,9.246683E-2,-4.7156278E-2],"categories":[],"categories_nodes":[],"categories_segments":[],"categories_sizes":[],"default_left":[0,0,0,0,0],"id":70,"left_children":[1,3,-1,-1,-1],"loss_changes":[3.859862E-1,2.8431186E-1,0E0,0E0,0E0],"parents":[2147483647,0,0,1,1],"right_children":[2,4,-1,-1,-1],"split_conditions":[-4.13022E-1,4.342183E-1,-9.591536E-2,9.246683E-2,-4.7156278E-2],"split_indices":[406,29,0,0,0],"split_type":[0,0,0,0,0],"sum_hessian":[5.5820947E0,3.8722095E0,1.7098851E0,2.5671034E0,1.3051063E0],"tree_param":{"num_deleted":"0","num_feature":"437","num_nodes":"5","size_leaf_vector":"1"}},{"base_weights":[1.9451637E-2,-2.4782175E-1,2.917363E-1,-4.2164454E-4,-9.969925E-2,2.690933E-2,9.982255E-2],"categories":[],"categories_nodes":[],"categories_segments":[],"categories_sizes":[],"default_left":[0,0,0,0,0,0,0],"id":71,"left_children":[1,3,5,-1,-1,-1,-1],"loss_changes":[5.5721575E-1,8.081652E-2,1.3042986E-3,0E0,0E0,0E0,0E0],"parents":[2147483647,0,0,1,1,2,2],"right_children":[2,4,6,-1,-1,-1,-1],"split_conditions":[4.040712E-1,-3.3861026E-1,-3.2245293E-1,-4.2164454E-4,-9.969925E-2,2.690933E-2,9.982255E-2],"split_indices":[397,176,83,0,0,0,0],"split_type":[0,0,0,0,0,0,0],"sum_hessian":[5.6632886E0,2.9032826E0,2.760006E0,1.0010364E0,1.9022464E0,1.0034343E0,1.7565717E0],"tree_param":{"num_deleted":"0","num_feature":"437","num_nodes":"7","size_leaf_vector":"1"}},{"base_weights":[1.2501822E-2,9.192846E-2,-8.8381715E-2],"categories":[],"categories_nodes":[],"categories_segments":[],"categories_sizes":[],"default_left":[0,0,0],"id":72,"left_children":[1,-1,-1],"loss_changes":[6.655949E-1,0E0,0E0],"parents":[2147483647,0,0],"right_children":[2,-1,-1],"split_conditions":[-5.935298E-1,9.192846E-2,-8.8381715E-2],"split_indices":[349,0,0],"split_type":[0,0,0],"sum_hessian":[5.373529E0,2.7468178E0,2.6267111E0],"tree_param":{"num_deleted":"0","num_feature":"437","num_nodes":"3","size_leaf_vector":"1"}},{"base_weights":[-2.68855E-3,-9.912388E-2,2.1635574E-1,1.0822695E-1,-3.1712346E-2],"categories":[],"categories_nodes":[],"categories_segments":[],"categories_sizes":[],"default_left":[0,0,0,0,0],"id":73,"left_children":[1,-1,3,-1,-1],"loss_changes":[5.175736E-1,0E0,2.3945735E-1,0E0,0E0],"parents":[2147483647,0,0,2,2],"right_children":[2,-1,4,-1,-1],"split_conditions":[-1.65382E-2,-9.912388E-2,-4.4518763E-1,1.0822695E-1,-3.1712346E-2],"split_indices":[371,0,435,0,0],"split_type":[0,0,0,0,0],"sum_hessian":[5.214108E0,1.8851702E0,3.3289378E0,2.2154677E0,1.1134701E0],"tree_param":{"num_deleted":"0","num_feature":"437","num_nodes":"5","size_leaf_vector":"1"}},{"base_weights":[-1.1119425E-2,9.477678E-2,-9.461744E-2],"categories":[],"categories_nodes":[],"categories_segments":[],"categories_sizes":[],"default_left":[0,0,0],"id":74,"left_children":[1,-1,-1],"loss_changes":[6.6625494E-1,0E0,0E0],"parents":[2147483647,0,0],"right_children":[2,-1,-1],"split_conditions":[-7.8289187E-1,9.477678E-2,-9.461744E-2],"split_indices":[398,0,0],"split_type":[0,0,0],"sum_hessian":[4.6940722E0,2.2439296E0,2.4501424E0],"tree_param":{"num_deleted":"0","num_feature":"437","num_nodes":"3","size_leaf_vector":"1"}},{"base_weights":[-2.254888E-2,-8.339027E-2,1.5600856E-1,8.4014595E-2,-3.271337E-2],"categories":[],"categories_nodes":[],"categories_segments":[],"categories_sizes":[],"default_left":[0,0,0,0,0],"id":75,"left_children":[1,-1,3,-1,-1],"loss_changes":[3.1110045E-1,0E0,1.6519038E-1,0E0,0E0],"parents":[2147483647,0,0,2,2],"right_children":[2,-1,4,-1,-1],"split_conditions":[-3.2053018E-1,-8.339027E-2,4.342183E-1,8.4014595E-2,-3.271337E-2],"split_indices":[203,0,29,0,0],"split_type":[0,0,0,0,0],"sum_hessian":[4.8704953E0,1.7748741E0,3.095621E0,2.0702198E0,1.0254014E0],"tree_param":{"num_deleted":"0","num_feature":"437","num_nodes":"5","size_leaf_vector":"1"}},{"base_weights":[1.8706739E-2,-9.370196E-2,2.1516472E-1,9.876024E-2,-1.6886048E-2],"categories":[],"categories_nodes":[],"categories_segments":[],"categories_sizes":[],"default_left":[0,0,0,0,0],"id":76,"left_children":[1,-1,3,-1,-1],"loss_changes":[4.5349595E-1,0E0,1.5224466E-1,0E0,0E0],"parents":[2147483647,0,0,2,2],"right_children":[2,-1,4,-1,-1],"split_conditions":[1.2777987E-1,-9.370196E-2,-2.1146625E-1,9.876024E-2,-1.6886048E-2],"split_indices":[396,0,191,0,0],"split_type":[0,0,0,0,0],"sum_hessian":[4.939587E0,1.6199661E0,3.319621E0,2.187793E0,1.1318281E0],"tree_param":{"num_deleted":"0","num_feature":"437","num_nodes":"5","size_leaf_vector":"1"}},{"base_weights":[1.3313202E-2,2.5609213E-1,-9.82683E-2,1.0290391E-1,1.4392547E-3],"categories":[],"categories_nodes":[],"categories_segments":[],"categories_sizes":[],"default_left":[0,0,0,0,0],"id":77,"left_children":[1,3,-1,-1,-1],"loss_changes":[5.594314E-1,8.3918095E-2,0E0,0E0,0E0],"parents":[2147483647,0,0,1,1],"right_children":[2,4,-1,-1,-1],"split_conditions":[-4.0059215E-1,-3.8199174E-1,-9.82683E-2,1.0290391E-1,1.4392547E-3],"split_indices":[236,230,0,0,0],"split_type":[0,0,0,0,0],"sum_hessian":[4.7462835E0,2.9172595E0,1.829024E0,1.8963448E0,1.0209146E0],"tree_param":{"num_deleted":"0","num_feature":"437","num_nodes":"5","size_leaf_vector":"1"}},{"base_weights":[6.863311E-4,-9.323239E-2,2.055308E-1,1.0247926E-1,-2.6718738E-2],"categories":[],"categories_nodes":[],"categories_segments":[],"categories_sizes":[],"default_left":[0,0,0,0,0],"id":78,"left_children":[1,-1,3,-1,-1],"loss_changes":[4.181014E-1,0E0,1.8880478E-1,0E0,0E0],"parents":[2147483647,0,0,2,2],"right_children":[2,-1,4,-1,-1],"split_conditions":[-1.65382E-2,-9.323239E-2,-4.4518763E-1,1.0247926E-1,-2.6718738E-2],"split_indices":[371,0,435,0,0],"split_type":[0,0,0,0,0],"sum_hessian":[4.552066E0,1.6008652E0,2.9512007E0,1.9096264E0,1.0415745E0],"tree_param":{"num_deleted":"0","num_feature":"437","num_nodes":"5","size_leaf_vector":"1"}},{"base_weights":[-1.17026055E-2,-9.820259E-2,8.113122E-2],"categories":[],"categories_nodes":[],"categories_segments":[],"categories_sizes":[],"default_left":[0,0,0],"id":79,"left_children":[1,-1,-1],"loss_changes":[5.3788507E-1,0E0,0E0],"parents":[2147483647,0,0],"right_children":[2,-1,-1],"split_conditions":[6.6056496E-1,-9.820259E-2,8.113122E-2],"split_indices":[55,0,0],"split_type":[0,0,0],"sum_hessian":[4.045894E0,1.8339652E0,2.2119288E0],"tree_param":{"num_deleted":"0","num_feature":"437","num_nodes":"3","size_leaf_vector":"1"}},{"base_weights":[-2.0082379E-2,-7.245929E-2,1.6419502E-1,-2.1991186E-2,8.7515324E-2],"categories":[],"categories_nodes":[],"categories_segments":[],"categories_sizes":[],"default_left":[0,0,0,0,0],"id":80,"left_children":[1,-1,3,-1,-1],"loss_changes":[2.5648123E-1,0E0,1.2724522E-1,0E0,0E0],"parents":[2147483647,0,0,2,2],"right_children":[2,-1,4,-1,-1],"split_conditions":[-3.420598E-1,-7.245929E-2,-1.8046676E-1,-2.1991186E-2,8.7515324E-2],"split_indices":[205,0,420,0,0],"split_type":[0,0,0,0,0],"sum_hessian":[4.313253E0,1.8179301E0,2.4953227E0,1.020293E0,1.4750297E0],"tree_param":{"num_deleted":"0","num_feature":"437","num_nodes":"5","size_leaf_vector":"1"}},{"base_weights":[1.9450687E-2,-2.2199628E-1,7.814535E-2,-8.314256E-2,-1.5052443E-2],"categories":[],"categories_nodes":[],"categories_segments":[],"categories_sizes":[],"default_left":[0,0,0,0,0],"id":81,"left_children":[1,3,-1,-1,-1],"loss_changes":[3.6915544E-1,1.653245E-2,0E0,0E0,0E0],"parents":[2147483647,0,0,1,1],"right_children":[2,4,-1,-1,-1],"split_conditions":[4.040712E-1,-2.0371754E-1,7.814535E-2,-8.314256E-2,-1.5052443E-2],"split_indices":[397,76,0,0,0],"split_type":[0,0,0,0,0],"sum_hessian":[4.3495793E0,2.2123852E0,2.1371944E0,1.2108138E0,1.0015713E0],"tree_param":{"num_deleted":"0","num_feature":"437","num_nodes":"5","size_leaf_vector":"1"}},{"base_weights":[1.2767511E-2,2.3780099E-1,-9.239051E-2,9.524263E-2,5.6748E-3],"categories":[],"categories_nodes":[],"categories_segments":[],"categories_sizes":[],"default_left":[0,0,0,0,0],"id":82,"left_children":[1,3,-1,-1,-1],"loss_changes":[4.443082E-1,5.6526646E-2,0E0,0E0,0E0],"parents":[2147483647,0,0,1,1],"right_children":[2,4,-1,-1,-1],"split_conditions":[-3.4765926E-1,-8.2209474E-1,-9.239051E-2,9.524263E-2,5.6748E-3],"split_indices":[237,349,0,0,0],"split_type":[0,0,0,0,0],"sum_hessian":[4.141202E0,2.585647E0,1.555555E0,1.5654135E0,1.0202338E0],"tree_param":{"num_deleted":"0","num_feature":"437","num_nodes":"5","size_leaf_vector":"1"}},{"base_weights":[-5.7576643E-4,-7.224442E-2,7.213349E-2],"categories":[],"categories_nodes":[],"categories_segments":[],"categories_sizes":[],"default_left":[0,0,0],"id":83,"left_children":[1,-1,-1],"loss_changes":[3.448768E-1,0E0,0E0],"parents":[2147483647,0,0],"right_children":[2,-1,-1],"split_conditions":[4.0464574E-1,-7.224442E-2,7.213349E-2],"split_indices":[370,0,0],"split_type":[0,0,0],"sum_hessian":[3.9561565E0,1.9817195E0,1.974437E0],"tree_param":{"num_deleted":"0","num_feature":"437","num_nodes":"3","size_leaf_vector":"1"}},{"base_weights":[-1.3353586E-2,7.58554E-2,-9.284148E-2],"categories":[],"categories_nodes":[],"categories_segments":[],"categories_sizes":[],"default_left":[0,0,0],"id":84,"left_children":[1,-1,-1],"loss_changes":[4.3324563E-1,0E0,0E0],"parents":[2147483647,0,0],"right_children":[2,-1,-1],"split_conditions":[-7.539504E-1,7.58554E-2,-9.284148E-2],"split_indices":[396,0,0],"split_type":[0,0,0],"sum_hessian":[3.503413E0,1.9218324E0,1.5815805E0],"tree_param":{"num_deleted":"0","num_feature":"437","num_nodes":"3","size_leaf_vector":"1"}},{"base_weights":[-1.8135218E-2,1.6056484E-1,-6.8412274E-2,-1.4327247E-2,8.48967E-2],"categories":[],"categories_nodes":[],"categories_segments":[],"categories_sizes":[],"default_left":[0,0,0,0,0],"id":85,"left_children":[1,3,-1,-1,-1],"loss_changes":[2.1912096E-1,9.550717E-2,0E0,0E0,0E0],"parents":[2147483647,0,0,1,1],"right_children":[2,4,-1,-1,-1],"split_conditions":[-5.64597E-1,5.9066553E-2,-6.8412274E-2,-1.4327247E-2,8.48967E-2],"split_indices":[406,40,0,0,0],"split_type":[0,0,0,0,0],"sum_hessian":[3.8654985E0,2.214921E0,1.6505775E0,1.0455939E0,1.169327E0],"tree_param":{"num_deleted":"0","num_feature":"437","num_nodes":"5","size_leaf_vector":"1"}},{"base_weights":[1.719692E-2,-8.377837E-2,1.9303808E-1,-9.031059E-3,8.791253E-2],"categories":[],"categories_nodes":[],"categories_segments":[],"categories_sizes":[],"default_left":[0,0,0,0,0],"id":86,"left_children":[1,-1,3,-1,-1],"loss_changes":[3.1060222E-1,0E0,9.098831E-2,0E0,0E0],"parents":[2147483647,0,0,2,2],"right_children":[2,-1,4,-1,-1],"split_conditions":[1.2777987E-1,-8.377837E-2,6.8907046E-1,-9.031059E-3,8.791253E-2],"split_indices":[396,0,349,0,0],"split_type":[0,0,0,0,0],"sum_hessian":[3.9241602E0,1.2420278E0,2.6821325E0,1.0463506E0,1.6357818E0],"tree_param":{"num_deleted":"0","num_feature":"437","num_nodes":"5","size_leaf_vector":"1"}},{"base_weights":[1.7027525E-2,7.632206E-2,-7.775919E-2],"categories":[],"categories_nodes":[],"categories_segments":[],"categories_sizes":[],"default_left":[0,0,0],"id":87,"left_children":[1,-1,-1],"loss_changes":[3.7578043E-1,0E0,0E0],"parents":[2147483647,0,0],"right_children":[2,-1,-1],"split_conditions":[-3.044561E-1,7.632206E-2,-7.775919E-2],"split_indices":[213,0,0],"split_type":[0,0,0],"sum_hessian":[3.7253103E0,2.0460138E0,1.6792965E0],"tree_param":{"num_deleted":"0","num_feature":"437","num_nodes":"3","size_leaf_vector":"1"}},{"base_weights":[-3.0312212E-3,-8.277939E-2,1.7980877E-1,8.788332E-2,-1.2325696E-2],"categories":[],"categories_nodes":[],"categories_segments":[],"categories_sizes":[],"default_left":[0,0,0,0,0],"id":88,"left_children":[1,-1,3,-1,-1],"loss_changes":[2.7547613E-1,0E0,9.4905645E-2,0E0,0E0],"parents":[2147483647,0,0,2,2],"right_children":[2,-1,4,-1,-1],"split_conditions":[-1.65382E-2,-8.277939E-2,-4.073674E-1,8.788332E-2,-1.2325696E-2],"split_indices":[371,0,434,0,0],"split_type":[0,0,0,0,0],"sum_hessian":[3.526546E0,1.2105635E0,2.3159826E0,1.3158624E0,1.00012E0],"tree_param":{"num_deleted":"0","num_feature":"437","num_nodes":"5","size_leaf_vector":"1"}},{"base_weights":[-1.5387288E-2,-8.4964514E-2,7.616421E-2],"categories":[],"categories_nodes":[],"categories_segments":[],"categories_sizes":[],"default_left":[0,0,0],"id":89,"left_children":[1,-1,-1],"loss_changes":[3.680299E-1,0E0,0E0],"parents":[2147483647,0,0],"right_children":[2,-1,-1],"split_conditions":[7.173604E-1,-8.4964514E-2,7.616421E-2],"split_indices":[30,0,0],"split_type":[0,0,0],"sum_hessian":[3.106178E0,1.531286E0,1.5748919E0],"tree_param":{"num_deleted":"0","num_feature":"437","num_nodes":"3","size_leaf_vector":"1"}},{"base_weights":[-1.5862785E-2,1.2567693E-1,-7.586449E-2,-3.0465467E-2,8.404085E-2],"categories":[],"categories_nodes":[],"categories_segments":[],"categories_sizes":[],"default_left":[0,0,0,0,0],"id":90,"left_children":[1,3,-1,-1,-1],"loss_changes":[1.8194824E-1,1.5025854E-1,0E0,0E0,0E0],"parents":[2147483647,0,0,1,1],"right_children":[2,4,-1,-1,-1],"split_conditions":[-4.13022E-1,2.7588997E-2,-7.586449E-2,-3.0465467E-2,8.404085E-2],"split_indices":[406,40,0,0,0],"split_type":[0,0,0,0,0],"sum_hessian":[3.4762352E0,2.4706218E0,1.0056131E0,1.1384125E0,1.3322095E0],"tree_param":{"num_deleted":"0","num_feature":"437","num_nodes":"5","size_leaf_vector":"1"}},{"base_weights":[1.4746029E-2,-1.8215045E-1,7.8222364E-2,-1.7012248E-3,-7.914608E-2],"categories":[],"categories_nodes":[],"categories_segments":[],"categories_sizes":[],"default_left":[0,0,0,0,0],"id":91,"left_children":[1,3,-1,-1,-1],"loss_changes":[2.6601896E-1,4.3107077E-2,0E0,0E0,0E0],"parents":[2147483647,0,0,1,1],"right_children":[2,4,-1,-1,-1],"split_conditions":[5.98501E-1,-1.9557266E-1,7.8222364E-2,-1.7012248E-3,-7.914608E-2],"split_indices":[397,193,0,0,0],"split_type":[0,0,0,0,0],"sum_hessian":[3.511659E0,2.0946338E0,1.4170251E0,1.0010047E0,1.093629E0],"tree_param":{"num_deleted":"0","num_feature":"437","num_nodes":"5","size_leaf_vector":"1"}},{"base_weights":[1.3872283E-2,7.490198E-2,-7.103169E-2],"categories":[],"categories_nodes":[],"categories_segments":[],"categories_sizes":[],"default_left":[0,0,0],"id":92,"left_children":[1,-1,-1],"loss_changes":[3.16028E-1,0E0,0E0],"parents":[2147483647,0,0],"right_children":[2,-1,-1],"split_conditions":[-2.780806E-1,7.490198E-2,-7.103169E-2],"split_indices":[244,0,0],"split_type":[0,0,0],"sum_hessian":[3.3469133E0,1.7265179E0,1.6203953E0],"tree_param":{"num_deleted":"0","num_feature":"437","num_nodes":"3","size_leaf_vector":"1"}},{"base_weights":[2.7549904E-4,-5.88884E-2,6.901629E-2],"categories":[],"categories_nodes":[],"categories_segments":[],"categories_sizes":[],"default_left":[0,0,0],"id":93,"left_children":[1,-1,-1],"loss_changes":[2.3338856E-1,0E0,0E0],"parents":[2147483647,0,0],"right_children":[2,-1,-1],"split_conditions":[4.4355205E-1,-5.88884E-2,6.901629E-2],"split_indices":[374,0,0],"split_type":[0,0,0],"sum_hessian":[3.1673653E0,1.7855738E0,1.3817915E0],"tree_param":{"num_deleted":"0","num_feature":"437","num_nodes":"3","size_leaf_vector":"1"}},{"base_weights":[-1.5188213E-2,7.5654544E-2,-7.630959E-2],"categories":[],"categories_nodes":[],"categories_segments":[],"categories_sizes":[],"default_left":[0,0,0],"id":94,"left_children":[1,-1,-1],"loss_changes":[3.0402544E-1,0E0,0E0],"parents":[2147483647,0,0],"right_children":[2,-1,-1],"split_conditions":[-8.298991E-1,7.5654544E-2,-7.630959E-2],"split_indices":[420,0,0],"split_type":[0,0,0],"sum_hessian":[2.7511141E0,1.2733244E0,1.4777899E0],"tree_param":{"num_deleted":"0","num_feature":"437","num_nodes":"3","size_leaf_vector":"1"}},{"base_weights":[-1.836398E-2,-5.940586E-2,4.342257E-2],"categories":[],"categories_nodes":[],"categories_segments":[],"categories_sizes":[],"default_left":[0,0,0],"id":95,"left_children":[1,-1,-1],"loss_changes":[1.495865E-1,0E0,0E0],"parents":[2147483647,0,0],"right_children":[2,-1,-1],"split_conditions":[-1.4528865E-1,-5.940586E-2,4.342257E-2],"split_indices":[173,0,0],"split_type":[0,0,0],"sum_hessian":[3.1267207E0,1.3860162E0,1.7407045E0],"tree_param":{"num_deleted":"0","num_feature":"437","num_nodes":"3","size_leaf_vector":"1"}},{"base_weights":[1.2426306E-2,-5.1297948E-2,7.2749145E-2],"categories":[],"categories_nodes":[],"categories_segments":[],"categories_sizes":[],"default_left":[0,0,0],"id":96,"left_children":[1,-1,-1],"loss_changes":[2.1795698E-1,0E0,0E0],"parents":[2147483647,0,0],"right_children":[2,-1,-1],"split_conditions":[5.98501E-1,-5.1297948E-2,7.2749145E-2],"split_indices":[397,0,0],"split_type":[0,0,0],"sum_hessian":[3.1823184E0,1.9135548E0,1.2687637E0],"tree_param":{"num_deleted":"0","num_feature":"437","num_nodes":"3","size_leaf_vector":"1"}},{"base_weights":[1.5044067E-2,6.497848E-2,-7.5068854E-2],"categories":[],"categories_nodes":[],"categories_segments":[],"categories_sizes":[],"default_left":[0,0,0],"id":97,"left_children":[1,-1,-1],"loss_changes":[2.7019194E-1,0E0,0E0],"parents":[2147483647,0,0],"right_children":[2,-1,-1],"split_conditions":[-4.7445565E-1,6.497848E-2,-7.5068854E-2],"split_indices":[225,0,0],"split_type":[0,0,0],"sum_hessian":[3.03982E0,1.8316576E0,1.2081624E0],"tree_param":{"num_deleted":"0","num_feature":"437","num_nodes":"3","size_leaf_vector":"1"}},{"base_weights":[2.7910324E-3,-5.9679378E-2,6.0271982E-2],"categories":[],"categories_nodes":[],"categories_segments":[],"categories_sizes":[],"default_left":[0,0,0],"id":98,"left_children":[1,-1,-1],"loss_changes":[1.9517317E-1,0E0,0E0],"parents":[2147483647,0,0],"right_children":[2,-1,-1],"split_conditions":[4.0464574E-1,-5.9679378E-2,6.0271982E-2],"split_indices":[370,0,0],"split_type":[0,0,0],"sum_hessian":[2.8836274E0,1.426768E0,1.4568595E0],"tree_param":{"num_deleted":"0","num_feature":"437","num_nodes":"3","size_leaf_vector":"1"}},{"base_weights":[-1.3830262E-2,6.697115E-2,-7.593454E-2],"categories":[],"categories_nodes":[],"categories_segments":[],"categories_sizes":[],"default_left":[0,0,0],"id":99,"left_children":[1,-1,-1],"loss_changes":[2.5257283E-1,0E0,0E0],"parents":[2147483647,0,0],"right_children":[2,-1,-1],"split_conditions":[-7.133343E-1,6.697115E-2,-7.593454E-2],"split_indices":[419,0,0],"split_type":[0,0,0],"sum_hessian":[2.4563682E0,1.26759E0,1.188778E0],"tree_param":{"num_deleted":"0","num_feature":"437","num_nodes":"3","size_leaf_vector":"1"}},{"base_weights":[-1.99848E-2,3.942631E-2,-5.8432356E-2],"categories":[],"categories_nodes":[],"categories_segments":[],"categories_sizes":[],"default_left":[0,0,0],"id":100,"left_children":[1,-1,-1],"loss_changes":[1.2862606E-1,0E0,0E0],"parents":[2147483647,0,0],"right_children":[2,-1,-1],"split_conditions":[-5.64597E-1,3.942631E-2,-5.8432356E-2],"split_indices":[406,0,0],"split_type":[0,0,0],"sum_hessian":[2.8931339E0,1.6832196E0,1.2099143E0],"tree_param":{"num_deleted":"0","num_feature":"437","num_nodes":"3","size_leaf_vector":"1"}},{"base_weights":[1.5980322E-2,-6.186899E-2,5.7044845E-2],"categories":[],"categories_nodes":[],"categories_segments":[],"categories_sizes":[],"default_left":[0,0,0],"id":101,"left_children":[1,-1,-1],"loss_changes":[1.9197592E-1,0E0,0E0],"parents":[2147483647,0,0],"right_children":[2,-1,-1],"split_conditions":[1.4807996E-1,-6.186899E-2,5.7044845E-2],"split_indices":[398,0,0],"split_type":[0,0,0],"sum_hessian":[2.947101E0,1.2140722E0,1.7330288E0],"tree_param":{"num_deleted":"0","num_feature":"437","num_nodes":"3","size_leaf_vector":"1"}},{"base_weights":[1.4010046E-2,6.876252E-2,-6.282574E-2],"categories":[],"categories_nodes":[],"categories_segments":[],"categories_sizes":[],"default_left":[0,0,0],"id":102,"left_children":[1,-1,-1],"loss_changes":[2.3091912E-1,0E0,0E0],"parents":[2147483647,0,0],"right_children":[2,-1,-1],"split_conditions":[-3.788617E-1,6.876252E-2,-6.282574E-2],"split_indices":[230,0,0],"split_type":[0,0,0],"sum_hessian":[2.8043354E0,1.4153036E0,1.3890318E0],"tree_param":{"num_deleted":"0","num_feature":"437","num_nodes":"3","size_leaf_vector":"1"}},{"base_weights":[1.5101484E-3,-6.308987E-2,5.176275E-2],"categories":[],"categories_nodes":[],"categories_segments":[],"categories_sizes":[],"default_left":[0,0,0],"id":103,"left_children":[1,-1,-1],"loss_changes":[1.6838996E-1,0E0,0E0],"parents":[2147483647,0,0],"right_children":[2,-1,-1],"split_conditions":[3.8492134E-1,-6.308987E-2,5.176275E-2],"split_indices":[36,0,0],"split_type":[0,0,0],"sum_hessian":[2.6466413E0,1.0798029E0,1.5668383E0],"tree_param":{"num_deleted":"0","num_feature":"437","num_nodes":"3","size_leaf_vector":"1"}},{"base_weights":[-1.3624936E-2,-7.236051E-2,6.44162E-2],"categories":[],"categories_nodes":[],"categories_segments":[],"categories_sizes":[],"default_left":[0,0,0],"id":104,"left_children":[1,-1,-1],"loss_changes":[2.1990909E-1,0E0,0E0],"parents":[2147483647,0,0],"right_children":[2,-1,-1],"split_conditions":[7.173604E-1,-7.236051E-2,6.44162E-2],"split_indices":[30,0,0],"split_type":[0,0,0],"sum_hessian":[2.2351463E0,1.0912598E0,1.1438864E0],"tree_param":{"num_deleted":"0","num_feature":"437","num_nodes":"3","size_leaf_vector":"1"}},{"base_weights":[-2.022694E-2,-5.8648407E-2,3.6834855E-2],"categories":[],"categories_nodes":[],"categories_segments":[],"categories_sizes":[],"default_left":[0,0,0],"id":105,"left_children":[1,-1,-1],"loss_changes":[1.1657916E-1,0E0,0E0],"parents":[2147483647,0,0],"right_children":[2,-1,-1],"split_conditions":[-2.2069995E-1,-5.8648407E-2,3.6834855E-2],"split_indices":[401,0,0],"split_type":[0,0,0],"sum_hessian":[2.6934278E0,1.0453193E0,1.6481085E0],"tree_param":{"num_deleted":"0","num_feature":"437","num_nodes":"3","size_leaf_vector":"1"}},{"base_weights":[1.3087743E-2,-5.0220016E-2,6.387522E-2],"categories":[],"categories_nodes":[],"categories_segments":[],"categories_sizes":[],"default_left":[0,0,0],"id":106,"left_children":[1,-1,-1],"loss_changes":[1.7010057E-1,0E0,0E0],"parents":[2147483647,0,0],"right_children":[2,-1,-1],"split_conditions":[8.1304073E-1,-5.0220016E-2,6.387522E-2],"split_indices":[349,0,0],"split_type":[0,0,0],"sum_hessian":[2.7280312E0,1.5186554E0,1.2093759E0],"tree_param":{"num_deleted":"0","num_feature":"437","num_nodes":"3","size_leaf_vector":"1"}},{"base_weights":[1.6207471E-2,6.2412765E-2,-6.407839E-2],"categories":[],"categories_nodes":[],"categories_segments":[],"categories_sizes":[],"default_left":[0,0,0],"id":107,"left_children":[1,-1,-1],"loss_changes":[2.0296206E-1,0E0,0E0],"parents":[2147483647,0,0],"right_children":[2,-1,-1],"split_conditions":[-3.044561E-1,6.2412765E-2,-6.407839E-2],"split_indices":[213,0,0],"split_type":[0,0,0],"sum_hessian":[2.595974E0,1.4664737E0,1.1295003E0],"tree_param":{"num_deleted":"0","num_feature":"437","num_nodes":"3","size_leaf_vector":"1"}},{"base_weights":[6.882642E-5,-5.384567E-2,5.3370025E-2],"categories":[],"categories_nodes":[],"categories_segments":[],"categories_sizes":[],"default_left":[0,0,0],"id":108,"left_children":[1,-1,-1],"loss_changes":[1.4220937E-1,0E0,0E0],"parents":[2147483647,0,0],"right_children":[2,-1,-1],"split_conditions":[4.0464574E-1,-5.384567E-2,5.3370025E-2],"split_indices":[370,0,0],"split_type":[0,0,0],"sum_hessian":[2.4537284E0,1.2163199E0,1.2374084E0],"tree_param":{"num_deleted":"0","num_feature":"437","num_nodes":"3","size_leaf_vector":"1"}},{"base_weights":[-1.0688703E-2,6.2450472E-2,-6.804411E-2],"categories":[],"categories_nodes":[],"categories_segments":[],"categories_sizes":[],"default_left":[0,0,0],"id":109,"left_children":[1,-1,-1],"loss_changes":[1.9150098E-1,0E0,0E0],"parents":[2147483647,0,0],"right_children":[2,-1,-1],"split_conditions":[-8.152775E-1,6.2450472E-2,-6.804411E-2],"split_indices":[396,0,0],"split_type":[0,0,0],"sum_hessian":[2.0504055E0,1.0370561E0,1.0133494E0],"tree_param":{"num_deleted":"0","num_feature":"437","num_nodes":"3","size_leaf_vector":"1"}},{"base_weights":[-2.2486575E-2,-5.4273415E-2,3.6064435E-2],"categories":[],"categories_nodes":[],"categories_segments":[],"categories_sizes":[],"default_left":[0,0,0],"id":110,"left_children":[1,-1,-1],"loss_changes":[1.0104812E-1,0E0,0E0],"parents":[2147483647,0,0],"right_children":[2,-1,-1],"split_conditions":[-3.420598E-1,-5.4273415E-2,3.6064435E-2],"split_indices":[205,0,0],"split_type":[0,0,0],"sum_hessian":[2.5076911E0,1.061485E0,1.4462061E0],"tree_param":{"num_deleted":"0","num_feature":"437","num_nodes":"3","size_leaf_vector":"1"}},{"base_weights":[1.4069622E-2,-5.6536127E-2,5.2121762E-2],"categories":[],"categories_nodes":[],"categories_segments":[],"categories_sizes":[],"default_left":[0,0,0],"id":111,"left_children":[1,-1,-1],"loss_changes":[1.4708804E-1,0E0,0E0],"parents":[2147483647,0,0],"right_children":[2,-1,-1],"split_conditions":[1.4807996E-1,-5.6536127E-2,5.2121762E-2],"split_indices":[398,0,0],"split_type":[0,0,0],"sum_hessian":[2.5361E0,1.0385454E0,1.4975545E0],"tree_param":{"num_deleted":"0","num_feature":"437","num_nodes":"3","size_leaf_vector":"1"}},{"base_weights":[1.3882459E-2,-5.8282487E-2,6.4151935E-2],"categories":[],"categories_nodes":[],"categories_segments":[],"categories_sizes":[],"default_left":[0,0,0],"id":112,"left_children":[1,-1,-1],"loss_changes":[1.8361954E-1,0E0,0E0],"parents":[2147483647,0,0],"right_children":[2,-1,-1],"split_conditions":[8.3708204E-2,-5.8282487E-2,6.4151935E-2],"split_indices":[435,0,0],"split_type":[0,0,0],"sum_hessian":[2.4134297E0,1.1963923E0,1.2170374E0],"tree_param":{"num_deleted":"0","num_feature":"437","num_nodes":"3","size_leaf_vector":"1"}},{"base_weights":[3.8730975E-3,-4.597558E-2,5.462579E-2],"categories":[],"categories_nodes":[],"categories_segments":[],"categories_sizes":[],"default_left":[0,0,0],"id":113,"left_children":[1,-1,-1],"loss_changes":[1.2049594E-1,0E0,0E0],"parents":[2147483647,0,0],"right_children":[2,-1,-1],"split_conditions":[4.4253016E-1,-4.597558E-2,5.462579E-2],"split_indices":[374,0,0],"split_type":[0,0,0],"sum_hessian":[2.3066173E0,1.3002701E0,1.0063473E0],"tree_param":{"num_deleted":"0","num_feature":"437","num_nodes":"3","size_leaf_vector":"1"}},{"base_weights":[-1.0805348E-2],"categories":[],"categories_nodes":[],"categories_segments":[],"categories_sizes":[],"default_left":[0],"id":114,"left_children":[-1],"loss_changes":[0E0],"parents":[2147483647],"right_children":[-1],"split_conditions":[-3.2416044E-3],"split_indices":[0],"split_type":[0],"sum_hessian":[1.8753555E0],"tree_param":{"num_deleted":"0","num_feature":"437","num_nodes":"1","size_leaf_vector":"1"}},{"base_weights":[-2.355922E-2,-4.9628075E-2,3.508874E-2],"categories":[],"categories_nodes":[],"categories_segments":[],"categories_sizes":[],"default_left":[0,0,0],"id":115,"left_children":[1,-1,-1],"loss_changes":[8.6804524E-2,0E0,0E0],"parents":[2147483647,0,0],"right_children":[2,-1,-1],"split_conditions":[-1.404507E-1,-4.9628075E-2,3.508874E-2],"split_indices":[173,0,0],"split_type":[0,0,0],"sum_hessian":[2.3837047E0,1.0979768E0,1.2857279E0],"tree_param":{"num_deleted":"0","num_feature":"437","num_nodes":"3","size_leaf_vector":"1"}},{"base_weights":[1.1160398E-2,-4.790282E-2,5.471602E-2],"categories":[],"categories_nodes":[],"categories_segments":[],"categories_sizes":[],"default_left":[0,0,0],"id":116,"left_children":[1,-1,-1],"loss_changes":[1.2819763E-1,0E0,0E0],"parents":[2147483647,0,0],"right_children":[2,-1,-1],"split_conditions":[6.002292E-1,-4.790282E-2,5.471602E-2],"split_indices":[349,0,0],"split_type":[0,0,0],"sum_hessian":[2.386977E0,1.2286153E0,1.1583617E0],"tree_param":{"num_deleted":"0","num_feature":"437","num_nodes":"3","size_leaf_vector":"1"}},{"base_weights":[1.6030343E-2,6.1499327E-2,-5.7271548E-2],"categories":[],"categories_nodes":[],"categories_segments":[],"categories_sizes":[],"default_left":[0,0,0],"id":117,"left_children":[1,-1,-1],"loss_changes":[1.6731933E-1,0E0,0E0],"parents":[2147483647,0,0],"right_children":[2,-1,-1],"split_conditions":[-2.780806E-1,6.1499327E-2,-5.7271548E-2],"split_indices":[244,0,0],"split_type":[0,0,0],"sum_hessian":[2.2780273E0,1.1956024E0,1.0824249E0],"tree_param":{"num_deleted":"0","num_feature":"437","num_nodes":"3","size_leaf_vector":"1"}},{"base_weights":[3.1873388E-3,5.0303496E-2,-4.705775E-2],"categories":[],"categories_nodes":[],"categories_segments":[],"categories_sizes":[],"default_left":[0,0,0],"id":118,"left_children":[1,-1,-1],"loss_changes":[1.0959315E-1,0E0,0E0],"parents":[2147483647,0,0],"right_children":[2,-1,-1],"split_conditions":[-3.708855E-1,5.0303496E-2,-4.705775E-2],"split_indices":[351,0,0],"split_type":[0,0,0],"sum_hessian":[2.1638167E0,1.0435758E0,1.1202408E0],"tree_param":{"num_deleted":"0","num_feature":"437","num_nodes":"3","size_leaf_vector":"1"}},{"base_weights":[-7.3301774E-3],"categories":[],"categories_nodes":[],"categories_segments":[],"categories_sizes":[],"default_left":[0],"id":119,"left_children":[-1],"loss_changes":[0E0],"parents":[2147483647],"right_children":[-1],"split_conditions":[-2.1990533E-3],"split_indices":[0],"split_type":[0],"sum_hessian":[1.826057E0],"tree_param":{"num_deleted":"0","num_feature":"437","num_nodes":"1","size_leaf_vector":"1"}},{"base_weights":[-2.2988245E-2,-4.6338234E-2,3.4882642E-2],"categories":[],"categories_nodes":[],"categories_segments":[],"categories_sizes":[],"default_left":[0,0,0],"id":120,"left_children":[1,-1,-1],"loss_changes":[7.795911E-2,0E0,0E0],"parents":[2147483647,0,0],"right_children":[2,-1,-1],"split_conditions":[4.6380658E-2,-4.6338234E-2,3.4882642E-2],"split_indices":[40,0,0],"split_type":[0,0,0],"sum_hessian":[2.2769654E0,1.1151135E0,1.161852E0],"tree_param":{"num_deleted":"0","num_feature":"437","num_nodes":"3","size_leaf_vector":"1"}},{"base_weights":[1.0593453E-2,-4.6940662E-2,5.3138565E-2],"categories":[],"categories_nodes":[],"categories_segments":[],"categories_sizes":[],"default_left":[0,0,0],"id":121,"left_children":[1,-1,-1],"loss_changes":[1.1821196E-1,0E0,0E0],"parents":[2147483647,0,0],"right_children":[2,-1,-1],"split_conditions":[4.040712E-1,-4.6940662E-2,5.3138565E-2],"split_indices":[397,0,0],"split_type":[0,0,0],"sum_hessian":[2.252739E0,1.1547642E0,1.0979749E0],"tree_param":{"num_deleted":"0","num_feature":"437","num_nodes":"3","size_leaf_vector":"1"}},{"base_weights":[1.2709368E-2,5.7153977E-2,-5.487676E-2],"categories":[],"categories_nodes":[],"categories_segments":[],"categories_sizes":[],"default_left":[0,0,0],"id":122,"left_children":[1,-1,-1],"loss_changes":[1.4417052E-1,0E0,0E0],"parents":[2147483647,0,0],"right_children":[2,-1,-1],"split_conditions":[-5.935298E-1,5.7153977E-2,-5.487676E-2],"split_indices":[349,0,0],"split_type":[0,0,0],"sum_hessian":[2.142853E0,1.1362838E0,1.0065693E0],"tree_param":{"num_deleted":"0","num_feature":"437","num_nodes":"3","size_leaf_vector":"1"}},{"base_weights":[4.8410804E-3,-4.6722688E-2,4.7837917E-2],"categories":[],"categories_nodes":[],"categories_segments":[],"categories_sizes":[],"default_left":[0,0,0],"id":123,"left_children":[1,-1,-1],"loss_changes":[1.0055788E-1,0E0,0E0],"parents":[2147483647,0,0],"right_children":[2,-1,-1],"split_conditions":[4.0464574E-1,-4.6722688E-2,4.7837917E-2],"split_indices":[370,0,0],"split_type":[0,0,0],"sum_hessian":[2.049769E0,1.0019251E0,1.0478438E0],"tree_param":{"num_deleted":"0","num_feature":"437","num_nodes":"3","size_leaf_vector":"1"}},{"base_weights":[-4.978105E-3],"categories":[],"categories_nodes":[],"categories_segments":[],"categories_sizes":[],"default_left":[0],"id":124,"left_children":[-1],"loss_changes":[0E0],"parents":[2147483647],"right_children":[-1],"split_conditions":[-1.4934315E-3],"split_indices":[0],"split_type":[0],"sum_hessian":[1.7790146E0],"tree_param":{"num_deleted":"0","num_feature":"437","num_nodes":"1","size_leaf_vector":"1"}},{"base_weights":[-2.3644732E-2,-4.4881284E-2,3.3066034E-2],"categories":[],"categories_nodes":[],"categories_segments":[],"categories_sizes":[],"default_left":[0,0,0],"id":125,"left_children":[1,-1,-1],"loss_changes":[7.005749E-2,0E0,0E0],"parents":[2147483647,0,0],"right_children":[2,-1,-1],"split_conditions":[-9.444079E-4,-4.4881284E-2,3.3066034E-2],"split_indices":[394,0,0],"split_type":[0,0,0],"sum_hessian":[2.1769366E0,1.0610083E0,1.1159283E0],"tree_param":{"num_deleted":"0","num_feature":"437","num_nodes":"3","size_leaf_vector":"1"}},{"base_weights":[9.546437E-3,-4.3725528E-2,4.9602818E-2],"categories":[],"categories_nodes":[],"categories_segments":[],"categories_sizes":[],"default_left":[0,0,0],"id":126,"left_children":[1,-1,-1],"loss_changes":[9.970725E-2,0E0,0E0],"parents":[2147483647,0,0],"right_children":[2,-1,-1],"split_conditions":[4.040712E-1,-4.3725528E-2,4.9602818E-2],"split_indices":[397,0,0],"split_type":[0,0,0],"sum_hessian":[2.1249692E0,1.0964735E0,1.0284958E0],"tree_param":{"num_deleted":"0","num_feature":"437","num_nodes":"3","size_leaf_vector":"1"}},{"base_weights":[1.517894E-2,-5.1686306E-2,5.779769E-2],"categories":[],"categories_nodes":[],"categories_segments":[],"categories_sizes":[],"default_left":[0,0,0],"id":127,"left_children":[1,-1,-1],"loss_changes":[1.3428706E-1,0E0,0E0],"parents":[2147483647,0,0],"right_children":[2,-1,-1],"split_conditions":[8.3708204E-2,-5.1686306E-2,5.779769E-2],"split_indices":[435,0,0],"split_type":[0,0,0],"sum_hessian":[2.0384579E0,1.005566E0,1.0328919E0],"tree_param":{"num_deleted":"0","num_feature":"437","num_nodes":"3","size_leaf_vector":"1"}},{"base_weights":[7.1557774E-3],"categories":[],"categories_nodes":[],"categories_segments":[],"categories_sizes":[],"default_left":[0],"id":128,"left_children":[-1],"loss_changes":[0E0],"parents":[2147483647],"right_children":[-1],"split_conditions":[2.1467332E-3],"split_indices":[0],"split_type":[0],"sum_hessian":[1.9597776E0],"tree_param":{"num_deleted":"0","num_feature":"437","num_nodes":"1","size_leaf_vector":"1"}},{"base_weights":[-8.10096E-3],"categories":[],"categories_nodes":[],"categories_segments":[],"categories_sizes":[],"default_left":[0],"id":129,"left_children":[-1],"loss_changes":[0E0],"parents":[2147483647],"right_children":[-1],"split_conditions":[-2.4302881E-3],"split_indices":[0],"split_type":[0],"sum_hessian":[1.7174807E0],"tree_param":{"num_deleted":"0","num_feature":"437","num_nodes":"1","size_leaf_vector":"1"}},{"base_weights":[-2.2686707E-2,-4.299295E-2,3.390144E-2],"categories":[],"categories_nodes":[],"categories_segments":[],"categories_sizes":[],"default_left":[0,0,0],"id":130,"left_children":[1,-1,-1],"loss_changes":[6.703788E-2,0E0,0E0],"parents":[2147483647,0,0],"right_children":[2,-1,-1],"split_conditions":[-1.930366E-1,-4.299295E-2,3.390144E-2],"split_indices":[74,0,0],"split_type":[0,0,0],"sum_hessian":[2.1063433E0,1.0853637E0,1.0209796E0],"tree_param":{"num_deleted":"0","num_feature":"437","num_nodes":"3","size_leaf_vector":"1"}},{"base_weights":[9.238855E-3,-4.2958908E-2,4.7772873E-2],"categories":[],"categories_nodes":[],"categories_segments":[],"categories_sizes":[],"default_left":[0,0,0],"id":131,"left_children":[1,-1,-1],"loss_changes":[9.224821E-2,0E0,0E0],"parents":[2147483647,0,0],"right_children":[2,-1,-1],"split_conditions":[5.64363E-1,-4.2958908E-2,4.7772873E-2],"split_indices":[349,0,0],"split_type":[0,0,0],"sum_hessian":[2.0370643E0,1.032854E0,1.0042105E0],"tree_param":{"num_deleted":"0","num_feature":"437","num_nodes":"3","size_leaf_vector":"1"}},{"base_weights":[1.6071148E-2],"categories":[],"categories_nodes":[],"categories_segments":[],"categories_sizes":[],"default_left":[0],"id":132,"left_children":[-1],"loss_changes":[0E0],"parents":[2147483647],"right_children":[-1],"split_conditions":[4.8213447E-3],"split_indices":[0],"split_type":[0],"sum_hessian":[1.9473294E0],"tree_param":{"num_deleted":"0","num_feature":"437","num_nodes":"1","size_leaf_vector":"1"}},{"base_weights":[4.970551E-3],"categories":[],"categories_nodes":[],"categories_segments":[],"categories_sizes":[],"default_left":[0],"id":133,"left_children":[-1],"loss_changes":[0E0],"parents":[2147483647],"right_children":[-1],"split_conditions":[1.4911654E-3],"split_indices":[0],"split_type":[0],"sum_hessian":[1.9085219E0],"tree_param":{"num_deleted":"0","num_feature":"437","num_nodes":"1","size_leaf_vector":"1"}},{"base_weights":[-7.2292974E-3],"categories":[],"categories_nodes":[],"categories_segments":[],"categories_sizes":[],"default_left":[0],"id":134,"left_children":[-1],"loss_changes":[0E0],"parents":[2147483647],"right_children":[-1],"split_conditions":[-2.1687893E-3],"split_indices":[0],"split_type":[0],"sum_hessian":[1.6849664E0],"tree_param":{"num_deleted":"0","num_feature":"437","num_nodes":"1","size_leaf_vector":"1"}},{"base_weights":[-2.1005375E-2,-4.2451E-2,3.241678E-2],"categories":[],"categories_nodes":[],"categories_segments":[],"categories_sizes":[],"default_left":[0,0,0],"id":135,"left_children":[1,-1,-1],"loss_changes":[6.275486E-2,0E0,0E0],"parents":[2147483647,0,0],"right_children":[2,-1,-1],"split_conditions":[4.6380658E-2,-4.2451E-2,3.241678E-2],"split_indices":[40,0,0],"split_type":[0,0,0],"sum_hessian":[2.052066E0,1.0113841E0,1.040682E0],"tree_param":{"num_deleted":"0","num_feature":"437","num_nodes":"3","size_leaf_vector":"1"}},{"base_weights":[9.140744E-3],"categories":[],"categories_nodes":[],"categories_segments":[],"categories_sizes":[],"default_left":[0],"id":136,"left_children":[-1],"loss_changes":[0E0],"parents":[2147483647],"right_children":[-1],"split_conditions":[2.7422232E-3],"split_indices":[0],"split_type":[0],"sum_hessian":[1.9800428E0],"tree_param":{"num_deleted":"0","num_feature":"437","num_nodes":"1","size_leaf_vector":"1"}},{"base_weights":[1.2283744E-2],"categories":[],"categories_nodes":[],"categories_segments":[],"categories_sizes":[],"default_left":[0],"id":137,"left_children":[-1],"loss_changes":[0E0],"parents":[2147483647],"right_children":[-1],"split_conditions":[3.6851235E-3],"split_indices":[0],"split_type":[0],"sum_hessian":[1.9188498E0],"tree_param":{"num_deleted":"0","num_feature":"437","num_nodes":"1","size_leaf_vector":"1"}},{"base_weights":[5.2816933E-3],"categories":[],"categories_nodes":[],"categories_segments":[],"categories_sizes":[],"default_left":[0],"id":138,"left_children":[-1],"loss_changes":[0E0],"parents":[2147483647],"right_children":[-1],"split_conditions":[1.5845081E-3],"split_indices":[0],